{"layers": [{"weights": [[0.08909809830012662, 0.02021099111265299, 0.04943373325471568, 0.11318219836215483, 0.0943259227924401, -0.04935998685458731, 0.047986711625652864, -0.007644693454911925, -0.005213339289250999, 0.02073835607611863, 0.007275298996727416, 0.07345190417667581, 0.03843820972787307, 0.0061455163759331416, 0.02241847869954809, 0.01685309854244315, 0.07546238887561822, -0.010362057108946868, 0.015812306771988516, -0.04313834921734194, -0.12894545793403372, 0.03301272436753611, 0.043660621294048525, -0.037484994192060535, 0.1146399204465114, -0.07345655934526674, 0.002311154134349605, -0.00945421212013376, 0.07741704118104671, 0.07421382501374396, 0.00782602681697773, 0.019100091571520542, -0.044839951599287255, -0.10004532963082159, -0.017572217146122088, 0.00789681544892502, 0.06213906308379893, 0.060729353188393766, -0.019562958508897624, -0.015268594635940375, -0.052959922288014445, -0.07172173662755615, -0.08617965873767211, 0.09852903646716184, -0.025741322411650926, -0.022126093523773625, -0.06327572103788179, 0.039269193065420385, -0.08151415086790002, -0.01074500676934454, -0.045227891267560466, 0.019541527135306987, -0.025799555474276956, -0.05963093024857444, -0.0014234174833721819, 0.021634026446455474, 0.003359627072345115, 0.015277137857868812, -0.03203810384987556, -0.01832119559178717, -0.033964381621579796, -0.018160177051598492, -0.04107008929501874, -0.08719043816807777], [0.008961373453385546, -0.02029300175316726, -0.08233745041562787, 0.023374033649648608, -0.04582548757248955, 0.0026236386870620737, 0.03682463432963203, 0.006514620775267455, 0.05754842503779729, -0.062368122225450656, 0.020321321630740682, -0.03458813279491941, -0.04398189780174445, -0.02923632308874842, -0.015735779154507492, 0.0028367781684511544, -0.058848953822595536, 0.045498608399840046, 0.02351950491980572, -0.07759202343726028, 0.07516808702490174, 0.09575686376781438, 0.05953735916365424, -0.00908757653619925, -0.054081174260241234, 0.05325785475334802, -0.020363510944487455, 0.06174279992110577, 0.010519474953544817, 0.049327720390652086, 0.017999221144931292, 0.03568733418807068, 0.0005303311324493872, 0.09020008118298463, 0.0064100286689503854, 0.02030352891832944, 0.09511347342033223, -0.06807211225281704, -0.06416918270178877, 0.048961927571317586, -0.059251679637491124, 0.09816769431646089, -0.020890913294477533, -0.03775216898573371, 0.09712323905377726, 0.07477728919073347, 0.09432597179880904, 0.04576216585174093, -0.04349846585958643, 0.09647284863164939, -0.013536214355755347, 0.04053016850529623, 0.04784344927893701, -0.00782919199834906, 0.031015691925605618, 0.0465784707942976, 0.019012360406563827, -0.05552812530456681, 0.015063302527842647, 0.06699260442982846, -0.03508097454359109, -0.007557685583244851, -0.021978573377127206, 0.09340192304357578], [0.033956012974261096, 0.020579930534343694, -0.03888663408462928, 0.02723619713655755, -0.03405894265188554, 0.0016076859717676635, -0.03211507670089855, 0.03416504070550214, 0.02912223402845098, -0.010520675898708526, 0.020001359422745855, -0.05520794321980994, -0.07531988259271859, 0.022192632254374837, 0.008418282772998565, 0.03207393109236039, 0.12036698791825581, 0.04770341785303665, -0.04610448468781143, 0.05641784228631456, -0.06646336095616617, -0.023313543153985244, -0.0034467215631501964, 0.08653687549820589, -0.03761579892798802, -0.041741449637120696, -0.004972603403296956, -0.03351071396119115, 0.056903707174990714, -0.05454477805577095, -0.057955918951348565, -0.02211325161272764, -0.02515443736682026, 0.09745608569791407, 0.04795299219834352, 0.00442200546319777, -0.06189384037654763, 0.04264677045688505, -0.05051850391328711, -0.07802272270803068, 0.06000456588742561, 0.016008019295645534, 0.0465103942007775, 0.016098177481977338, 0.04327648114318656, -0.0328817579820378, -0.052237151915674324, 0.034425721849751185, -0.04057831582915213, -0.03482752312948882, -0.023007865877714154, 0.0008828308482896896, -0.017879392510434813, -0.06944552738407825, -0.032507638367113706, -0.11229881758924554, 0.03157895705945921, -0.08091613086652527, -0.055779782024235856, 0.0026347343776120524, -0.03735357213306713, 0.0779340059915657, -0.06529913485495246, 0.013488105759897855], [-0.0019840819394843323, -0.058997630950908125, 0.026429462507046718, -0.008664398149637513, 0.038981309458491965, 0.04159324082878894, 0.1092599149316353, 0.06750485544941599, -0.018646498650001064, -0.012090474267056877, 0.05554119694633115, 0.03309581624711034, 0.032331524496778626, -0.08166861312948333, -0.0012286548230339225, -0.0372761900446154, 0.014138327300314222, -0.0049573432923312455, 0.045970977000374225, 0.016021939362690224, 0.03971555958884683, -0.02355772186977783, -0.04770173943043145, -0.020710637049070384, -0.0008596607185732967, 0.019150054522117637, 0.11411233427349747, -0.0021343084637763447, -0.04828251373498715, -0.01747471855457137, -0.02341513267164571, 0.024318486794350565, -0.07782200123898435, 0.0031952132207456138, 0.007904773878239065, 0.011726913225723876, -0.030169017348364247, -0.012016862034854543, -0.07192593754030192, -0.024916416772826005, -0.027418645066882817, 0.021013700644602198, -0.0583960312735734, 0.03945646251208532, 0.07548286827059539, -0.10455003201011957, 0.02152931707665472, 0.03418901870068197, -0.03219543166766883, -0.02006525670615542, -0.006711482678551534, -0.015040710728604818, -0.015607511849129202, -0.08465097548217082, 0.05820153311667497, 0.05452897339459349, -0.04108109880414747, -0.07406561330614873, 0.026317750541276868, -0.02908168414146101, 0.007169717456786057, -0.016128520656347383, 0.03492798145250034, 0.035090130764479185], [-0.036648201908770155, -0.06987043097920631, -0.07995046249687157, 0.03082881414736709, -0.06004646021824947, -0.0255980914957747, -0.03011840716464928, -0.0026550494043456056, -0.09779689864204547, 0.009534758995414085, 0.026460492539709283, 0.004465989811139089, -0.015702122870365334, 0.004919451289810998, 0.020154884072131923, -0.14003708139557042, 0.09878848975502133, 0.019702688126301778, -0.03295160947929744, -0.019746127337351517, 0.024937725637050687, -0.005864134472405004, -0.10256505411560642, 0.10427263585559954, -0.005583146308992797, 0.051526503031122196, -0.03495379573481864, 0.07759875953690112, 0.01446254029755014, 0.030751257431515078, -0.052793267375755494, 0.06117207480977023, 0.0348410787091576, 0.06575316407053923, -0.03172321232867647, -0.024295538385589118, 0.116365365730088, -0.0535388840293888, -0.006866496803565859, 0.057421685140627135, 0.004935856240172201, 0.029443607147943203, -0.02017522266644019, 0.01869064483678493, -0.06598957119031094, 0.08374824626081995, -0.00596818554306035, -0.03435418717581855, 0.03365742829805414, -0.02326986327780503, -0.06739022949889172, -0.06801950576372036, 0.035040835776597334, -0.008059675729319815, -0.006752948535483652, 0.05443428239911529, -0.05691329789913636, -0.036904799565204705, -0.019439365929561737, 0.0047654749015593745, -0.002129979941431896, -0.01448999136960524, -0.003112603344425796, -0.0054197348944704056], [-0.03634551020832656, -0.04106234680455038, 0.01386516986380212, -0.044998006903393825, -0.0584552680011262, -0.015773140605927854, -0.007963386878491657, 0.1139817491573275, -0.03559273884014096, 0.047641861075204905, 0.03773870985282682, -0.060050788591578405, 0.03905517313529046, -0.059795002056869, -0.13430848013075022, 0.030623760517165727, -0.08868586704074391, 0.022775629700976328, -0.034547767442534565, 0.08381997297924232, 0.053967874429851036, -0.022899441171216436, -0.03474104565096686, -0.061320168900943293, -0.022269955948050996, -0.014160090841991345, -0.01841980559245128, 0.007914739907225991, 0.029219748150449126, 0.017660216972283812, -0.03859509645691021, -0.07261943578980688, 0.0689192659241621, -0.03482244240562831, -0.03294580198847406, -0.026324035500719198, -0.09308906979387184, -0.02414133282056531, -0.02422627705146951, 0.03133282568028893, 0.035277413321572915, 0.00019045866028595673, 0.04706545031242021, 0.017170824672274796, -0.0007920662469636223, 0.008128099934828818, -0.009629455583450956, -0.01994291206580468, -0.01352258567777017, -0.05697317583840773, 0.01416444511119088, -0.05016031713176978, 0.04250879814893387, -0.012599560975498206, 0.002499874082820207, 0.024942523807683442, 0.032492287191528045, -0.07932846163821744, -0.010450213747712132, 0.04445574838497993, -0.08576729572092043, 0.019560617883785655, -0.11392319728657839, -0.051644394496027715], [0.0019511375119411047, -0.08367674881042989, -0.04977580896775855, -0.07433889389751822, 0.08324338477674258, 0.008294754254581434, 0.02865248588363023, -0.01124679096969013, -0.017850999016631112, -0.08164427574344053, -0.014740012728758007, -0.03846116477091011, 0.04333170175780608, 0.05763434770987126, 0.07407341106616842, 0.04306037555048429, -0.030236589884447652, -0.05636130899130175, 0.03872233818766387, 0.01799550480876545, -0.08932468080449135, 0.017954541874104994, 0.04113946356371666, 0.002976191692553086, -0.0093466218324407, -0.040792408743470315, -0.07306103537735119, 0.04042115049628725, -0.015612637147199272, -0.011791847111323547, 0.08751563579829445, 0.034572526742130794, 0.018729490931384103, 0.007175204699678327, 0.07677133381544142, 0.08685237572356212, 0.04694709767676658, 0.029406782625074217, -0.10579343111028812, 0.006248900323992352, -0.006571393542135401, 0.004745354686636488, 0.047631020236942385, -0.13837459308440614, -0.028754600972857584, 0.013632228546456657, -0.023579260812903215, -0.07156456577830367, 0.04388928387058797, 0.013984143010274317, -0.049048187643038886, 0.015900670010523657, 0.041496344879742054, 0.0002673190063357104, 0.04043462866323809, 0.0039527357538326965, -0.01996207812545388, -0.058559579242370506, -0.004340159145584883, 0.009813275287773064, 0.0442362346359816, -0.005813805109466774, 0.023102976927101292, -0.048720264008937884], [-0.039528741659996154, -0.005575501565167277, -0.053266781322582564, 0.041428772001848725, 0.023391614031024712, 0.014096464828739056, 0.01711724322230637, 0.10207811481423652, -0.02368121762620323, -0.11118957581153391, 0.010066180051236046, -0.0025558647832889412, -0.026138658882305377, -0.04943837365574719, -0.022182420649455418, 0.009158973784974156, -0.02539607847987036, 0.12184731115027306, -0.04851279725801361, -0.04005847610338466, -0.11559276784669291, 0.012701881087461491, -0.10184391429619351, -0.027246573528686625, -0.013923464597220738, -0.035846675532004935, 0.08782633298914949, 0.050224501233789895, 0.06662647361043457, -0.04456888074594779, 0.057002608301795654, 0.025051830902482895, 0.038961884096931375, 0.05199451261778799, -0.0458994752650532, -0.021431276226458382, 0.04356767778820112, -0.1341290192065031, 0.07643461066768206, 0.02793738810663539, -0.0023083986078525185, 0.011137318477817577, -0.05201958735793323, -0.017674809009442308, 0.05557275119921279, 0.06556000991150057, 0.13617987936899867, -0.003733759487416718, -0.0332619477570241, -0.025972737459472726, -0.05141887953911179, -0.0039322589909570865, 0.019330906902977178, -0.0017294963405311914, 0.05537387779305481, -0.011829684385125933, -0.017548908036387482, -0.029358491548422266, -0.08246049604997842, -0.07918422779885068, -0.05955646920312897, 0.06573204390719174, 0.04521747213481346, 0.06944617251673667], [-0.06728684963853733, -0.09943056198278273, -0.03333787856656062, 0.008880198152624448, 0.025187662507180186, 0.05293058699854974, 0.014358291641518632, 0.0880180651545492, -0.011243284752086176, -0.04611746477413317, -0.08491434291646144, -0.04489983397070766, 0.012228803718545744, -0.044887151468043285, 0.04731263915651232, 0.07133332129976548, -0.11968221209261255, 0.04364123149869452, -0.1131170869323306, 0.020278764606738105, 0.06186530585836636, 0.0032757280426356124, -0.06463406372740886, -0.029568741033072853, -0.013215090637768183, -0.009204751603838917, -0.010247837999102671, -0.0055499184560886166, 0.010782370730886875, -0.06104218757986879, -0.012223847348774767, 0.07668376922648167, -0.019427527646888806, -0.022417107943241754, 0.0544571874938135, -0.12925834513432446, 0.05966863000854468, -0.03191595945305121, 0.00827964322938959, 0.004864963138925806, 0.04760182843949085, -0.013515575690921978, -0.034245473425966545, 0.06555111139312915, -0.1194088098574438, 0.001027031269546924, -0.068080514776771, -0.038465264800530585, 0.10158380272638114, -0.0022524091754887476, 0.00985250754712484, -0.0899825125985353, -0.03682231585868301, 0.00992764792483753, 0.017917969319889475, 0.031157476131020812, 0.0004357747022864493, 0.026617732108009908, 0.02291944768603526, -0.09241584660231177, 0.0018690712075264521, 0.03878492855694799, 0.029793430094748836, -0.018377645137486635], [-0.040690283327480155, -0.0564832817978288, -0.006619227161616623, 0.057229176175908274, -0.09858099397895408, -0.033329565495760605, -0.05756871753181068, 0.03964634187232436, -0.027996863987539266, -0.023770791397357802, -0.010957608005550689, 0.022495756285888034, -0.019818637246757413, -0.1538534578938095, 0.027441394478528867, 0.022175018043007116, -0.011088496420119201, -0.054752117537976715, 0.017767578696381618, 0.01915428695927941, -0.023740245624174972, -0.010946592324321146, -0.0469799978928364, -0.00902011129006423, -0.07830850740422479, 0.02107778344774186, -0.047697811700054576, 0.012026025032435064, -0.07101185087070326, -0.029802411620380137, -0.005580557683670346, -0.08387800703485569, 0.005815845852611962, -0.019149843770196164, -0.08800227733666546, -0.06582369921178934, 0.030563179634762416, 0.045232407879681635, -0.006662392406107734, 0.020443558718513607, 0.01130580725310853, 0.01664847470696112, 0.0649520008502803, -0.07611491332961264, 0.034166426504237284, -0.019294365925933376, -0.01132678665364307, -0.01526591671547044, -0.018947790723841045, -0.06193226016249236, 0.009260027932311534, 0.0843953678186726, -0.0028351456719856636, -6.995522215852506e-05, -0.0347138435626044, -0.005933360599218605, 0.023544960072154304, -0.01870006717893565, -0.022920565339837738, 0.020367935068679045, -0.04636624270718876, 0.012753005516627666, 0.04143250754276339, 0.06868777399187996], [-0.0045649807316272125, 0.06907409158566657, 0.05224558894696345, -0.05031633667929544, -0.06151518432969768, -0.015402989738727084, 0.05196909030123872, -0.0036510452312401923, -0.030337788013626563, 0.07840011990449344, 0.014490864930001478, -0.11720771062816561, 0.016019030684066616, 0.026266017503962878, 0.0113949578193493, 0.022713891118263305, -0.0033979313769924705, -0.06658904712243764, -0.018723379606441597, -0.04776081010249754, -0.04711053022234436, -0.06379458533945118, 0.02285415041560299, 0.004944502019520925, -0.02263576907460408, -0.032796517998555555, -0.0011830454569366786, 0.05450756503350811, -0.10122818024213794, 0.01903513882597568, -0.027562616957333638, -0.09518595933665336, -0.09827284602005773, -0.04610252846130115, 0.011086906816893507, 0.019852676146457356, -0.04742573124640507, 0.05136731711695505, 0.07187151999307732, 0.020005393582843232, -0.029870345487066446, 0.0567917450188235, 0.03815324420590543, 0.043810690187180826, -0.033156422583929396, -0.14316662230875865, 0.1069140918318504, -0.08136164591045766, -0.0018065604401664348, 0.12024579872327386, 0.016696647576018745, 0.047944187033603224, -0.07588248587437245, -0.08978573988453165, -0.026905554040410697, 0.05509118098543291, -0.01748823802953638, -0.040135195086199095, 0.009998858083800707, 0.054645980699273074, -0.07298050094098721, -0.061141654290177774, -0.039833812712636564, 0.055287586978995766], [0.011860278097637225, 0.1076900096531704, 0.047297651639167174, -0.0017725741108203712, 0.06389607986009882, 0.010682212278814893, -0.03560390489722907, 0.034343915957284164, -0.03516980706186496, -0.014667268515380543, 0.06706315344671754, -0.005115487550926781, -0.04056476580291692, -0.023452595026753058, 0.051608218001594576, -0.027907518361025053, -0.01953992851796246, -0.02577367547037143, 0.009289640305794366, -0.019470173117112133, -0.08090493804125339, -0.044809404294149716, -0.04711296119040732, 0.06279711199492315, 0.041046237576398976, 0.029661077820644314, -0.025524449504763354, -0.041203695098469086, -0.025633509835960723, -0.05312796810782069, 0.1261276664909196, -0.11340586882202679, 0.02848673284269865, -0.06487968862137705, -0.005270142172041286, -0.04990163381162864, -0.05947924464951047, -0.05758860973392348, 0.08864018644282189, -0.006716929659600916, -0.038673801006062526, 0.028071480799863113, 0.0005227193221759275, 0.03636719670812323, -0.09213887514559528, 0.01533431283141385, 0.039026982793066343, -0.08392338708964907, 0.022637280350825545, 0.08567010659074686, -0.0007504273424977433, 0.0414872648697953, 0.03386892233415437, -0.0357344340312748, 0.002008523406554025, -0.07914518472383517, -0.022794245564662877, 0.013419269198453362, 0.03652209018580983, 0.0012431000473007814, 0.03636466985201554, -0.055705175870965455, -0.0051364880332814165, 0.0009737559661642716], [0.09341846521074652, -0.01081704963593768, -0.02520414633218566, 0.001078399654743223, -0.04642223925337608, 0.009735539555273044, -0.018438072794813024, -0.0904757040390137, -0.002959067685220387, -0.016038348216928622, -0.08244982761851477, -0.003390786855511035, 0.0752238357416771, 0.026329815390265864, 0.030906990540903505, -0.06775581654280846, 0.024087005042979094, 0.007497836118439817, 0.026720819684337843, 0.021345968880988195, -0.06867929799503643, -0.0020910567570903687, -0.03827825890502274, -0.0025296287641702934, -0.045325591489669824, 0.06628976405084258, -0.043384657194357114, -0.045403435337945636, 0.0037671824179488127, -0.05440171828466318, -0.021448735776525216, -0.04191954250456118, 0.0712749525569543, 0.039689086759618686, -0.002902649015600433, -0.019759445036289874, 0.04752351612885235, 0.020465896640055187, 0.025155445195536755, -0.001322907760040503, -0.08526849291713808, -0.005680389922904836, -0.026894802341872043, 0.032580211293115835, 0.051105760418748994, -0.033231546102813994, 0.02365702681178235, 0.08767512932734821, -0.03372458518571147, 0.0849498762736281, -0.043062088148431564, 0.001159642777483452, -0.0005629384081313596, 0.0005807821481647296, -0.042309130277441216, -0.029859255828195614, -0.033724967315753904, 0.01651410488606038, 0.016669290535708578, 0.11242716653684862, 0.06924540166290416, -0.025750972418446677, 0.01640839345221082, 0.05036206327577791], [0.0015456255361746766, -0.0035174308837402184, 0.0026049279837069028, 0.04380408467107482, -0.042846656735378366, -0.016448792130583288, 0.023760461915418616, 0.015730452591188233, 0.012100756724988747, -0.0186777794560081, 0.04912047510352129, 0.10777662198264146, 0.02052708225412313, -0.009756896830938689, 0.03817064879237225, -0.027230310243358775, -0.037865080466392746, 0.0016570919942781124, -0.13045092954277357, -0.05828329480650131, -0.017574727708277605, -0.06835645994132618, -0.05215635284953112, -0.02205912222060769, -0.08298227859354573, -0.020509722913137803, -0.027035225936286666, 0.0012831567947501545, 0.05829509676425299, 0.008712788763338142, 0.0010637927226049269, 0.005023208641831599, 0.011485069520069826, -0.051353056651886705, -0.005797029318451407, 0.015594292628745485, -0.06923383421681083, 0.04372207513407463, 0.05461773764128597, -0.03188930306506586, -0.012189399206648216, -0.04435531046953868, 0.03532404875531946, -0.05359981969995013, -0.01123678590006271, -0.043382006521923484, 0.002573579628938615, -0.09062226320527005, 0.06699643016433049, -0.048719981695168335, 0.003025138327752729, -0.01073403472253556, -0.03849259567293388, -0.04483966820128497, 0.04729526857422506, -0.02654885913209288, 0.01369616260090362, -0.04048170591158996, -0.032687598508397926, 0.023852083015938507, 0.04699272549098199, -0.008854815495618916, -0.07181779882434701, 0.10091202089315134], [-0.04326227316236113, -0.07786192172140409, 0.13103822994914094, -0.020406712485739532, -0.07382864972512024, -0.03451892097348782, 0.01856382059770364, 0.009612185208060639, -0.04301882079375628, 0.09206144413423122, -0.026343751945586427, -0.05983570869005559, 0.04852234404947731, 0.06712781081509323, -0.041289636635544996, -0.0707787266932506, 0.05204499189169222, -0.10340545786261628, -0.06195374952211731, 0.04886340950952424, -0.002795725861613263, -0.013330849214163373, 0.017819929640528615, -0.007716273634344587, -0.06559358484846077, 0.06445153789042465, 0.06692331585455269, 0.010370860588986754, 0.002279612026725196, 0.11816889755493169, -0.013961967089527742, -0.013110617435341894, 0.01840908306809326, 0.07431298089263595, 0.08044707152315826, -0.013059890091992602, 0.015573079633539306, -0.0696037260430055, -0.015757172962552878, -0.042441074057810245, -0.05085268282603898, 0.08493244993985959, -0.0400165193719127, -0.02685015303383798, 0.01847815420177782, 0.06555007479087598, 0.024299983457212026, 0.13936847948760284, -0.003771302411348393, 0.013067153520778394, 0.013919936105264938, 0.0724809394811577, 0.025619435857968612, -0.005870486379930986, -0.04785540075396916, 0.012346258951938971, 0.07077860235623307, -0.020727410655069913, 0.026715687103408204, 0.01243234075379476, 0.043614329009237035, -0.040646201942162674, 0.11852357345261477, -0.0646073923578409], [-0.018463118185661487, 0.04738082836106433, 0.014987288462398933, 0.04192063152694461, -0.0250569517515388, -0.003778222179986529, 0.0006178084698836196, 0.07925957963432326, 0.034871931790661864, 0.040238017871917366, -0.03323028582516685, 0.04893596313584628, 0.01139359457291738, 0.07016243376924212, 0.1017253995186055, -0.015494011461760611, -0.020521407053930435, -0.04364086231848254, -0.0072518604552902575, -0.019295198967046533, 0.01815771420021853, -0.007301726899171349, -0.018263521679490125, 0.053769669207600554, -0.047370105099142724, 0.02187525504708147, -0.020503153432968293, 0.03658613441939375, 0.06996627381458961, -0.015308773597282893, 0.022275525675661653, 0.009030403413407669, -0.04037692855352465, 0.012161605783110466, 0.014602790704480648, 0.020853125492253113, -0.010020657522956035, 0.004757429591776027, -0.05796310580446299, -0.018087492229296988, 0.028080355779245905, 0.045076738411717415, -0.021330119709613078, 0.005288857164117362, 0.011518432333383455, 0.010176274041986332, 0.027313190660890555, -0.09182678722627081, -0.002491241748362109, 0.012073020026644902, -0.050524312369419316, 0.08454904607404501, 0.0081599752448313, 0.07896386406779866, -0.039927442101589286, -0.04582557632156695, 0.011326447581498408, -0.08478656606107761, 0.010857401918105861, 0.004910312729357968, 0.05129884342815455, 0.03540793473071086, -0.021085790363964033, -0.05543195192268509], [0.08648447381949836, -0.04000785018009565, -0.052806964585777195, -0.05479350544689316, 0.056432440376553615, -0.02620841809342133, -0.03806782421763498, 0.00695438639976086, -0.010452286297553412, -0.03424899275812656, 0.038082319946948266, 0.053806557754684, 0.04976604944237261, 0.03873529278877005, 0.020335660238634517, -0.08969588910005888, 0.08430989747787622, 0.015252758463499745, 0.030716538141328513, 0.0563141013802581, 0.0723952339013262, 0.02113229078797827, 0.02199840305412235, -0.030265396431669773, 0.0016712848155709013, -0.043141658553477236, -0.03636248802347038, -0.04513232281222006, -0.007880396525092329, 0.05298720766248945, 0.1601584117974972, 0.009571177053037321, -0.0681051455852174, 0.06389130647352127, -0.015191879909126831, -0.033365772607945834, 0.010598999204846363, -0.06266100480378953, 0.011236086559621496, -0.0044636379817879655, 0.004968834644868651, 0.01926442998614834, 0.003408873769468668, 0.00082519786198732, 0.014360051740945574, 0.020980899976767272, -0.052097731597421613, -0.07222546543242621, -0.0031131917621502326, -0.07236407004135988, 0.004421006903996183, 0.04741387725804617, 0.030663770010667033, -0.05294060017895388, -0.04344981524138058, 0.01658171942623995, -0.020268599948941618, -0.015993507602140845, 0.03014833004461635, -0.0498655082799393, -0.020265413158972453, -0.04041026745342466, -0.052685995836894234, -0.04328898565831884], [0.03421700671015692, 0.002617324914767738, -0.04440431731439363, -0.011672393848008597, -0.0827722685660112, -0.037037889926668274, 0.10856990930504122, -0.004558002718502256, 0.03695435634420456, -0.0033076624395394615, 0.01758520194571551, 0.0334995923492128, -0.05579156333729848, -0.0015625169502105729, 0.07974473468223682, -0.04017884524145076, -0.028609532979169166, -0.015540756338439843, 0.013587767603239284, 0.026512355782139937, 0.0640139554055097, 0.02522847057688503, -0.0031341561461302775, 0.06359754399964335, 0.03556297703317886, -0.07554322345908222, 0.12760086532357515, 0.08939452969721558, -0.008496101257901616, 0.01908734254415527, 0.06689021806041409, -0.008697453445833185, 0.03688833597338045, 0.05578963778679119, -0.05125644864877263, -0.03042235272807889, 0.04653815188100671, 0.023274645832919383, 0.046658772302485656, -0.006695695866434401, -0.014596967461713344, -0.100946537595152, -0.05788176234472062, 0.002377196764070631, 0.041646428673585464, 0.02682855892835597, -0.006477197819124085, -0.013726536971375878, 0.01096922792672365, 0.003950261179633563, 0.07094026129278726, 0.007396375846239517, -0.07481421889106443, -0.06427389190967553, 0.07670893043980945, -0.059152536010637, 0.03861295237427541, -0.013554870068009655, -0.008574088627221886, -0.006774728591069425, 0.06168925623377539, -0.009739983189989353, -0.0016828779174343038, -0.07731725240537604], [0.0104394473168319, 0.026821696984463603, 0.012078675840791944, 0.07060442325783936, 0.002786574220882193, 0.015100641903118626, 0.08326202603384623, -0.07828753887360826, -0.023022656747546444, 0.07203189461438335, 0.047281662059796684, 0.034263369150864066, 0.04205521315966613, 0.016519338169032297, 0.08240811465532827, 0.019079719326570755, 0.01211511836872451, 0.00802862545733321, 0.009741100772581345, -0.05843819751535143, 0.03892486734919853, -0.006588201449597052, 0.09202060860308894, -0.003820925768073378, 0.0212595837904295, 0.012455291297201259, -0.03159540153890744, 0.05011047709359645, 0.09622024420228, -0.0007463623020399577, -0.015176470492153623, -0.01793165880323643, -0.09557870908740758, -0.008980919978321301, 0.01267731927818097, 0.053273320100373646, 0.048489733430710086, -0.021036380396354293, -0.01398167262807033, 0.056765790215107775, -0.008761249850805581, -0.025760381869046466, 0.07033280275159647, 0.052405990088105044, 0.000949128813873091, -0.02999028998856692, -0.10161530119097784, 0.029784529885146026, -0.0452735078047822, -0.09913293666538017, 0.08004552441800934, 0.03272731564382569, -0.05752860122714591, -0.06133653235520096, 0.04399021302341949, -0.04434421261678912, 0.06546545434021511, 0.031135897163110875, 0.02710221703242197, 0.020440207212875084, 0.009669729276584707, 0.04447253141777383, -0.02293452168131644, 0.004341230233701385], [0.03797903794547356, 0.0284352748393255, -0.060355948102422716, -0.025274504937296372, 0.012768505213543876, -0.020607854827569085, 0.08963379305392885, -0.019857235003984897, -0.008193268879645183, 0.038862092617053215, 0.016694424581828633, -0.007337468130191944, -0.03820869315680846, 0.015228759614880233, 0.05248229566416889, 0.02419796298528186, -0.03930420321637509, 0.08772038210522903, -0.07306321682563634, -0.0799376964146668, 0.04851546622367391, 0.011406666706169825, -0.027753867738838353, -0.05548620079052948, 0.11721809315226774, 0.005913982122582864, 0.026981233601631315, 0.016055621992518802, 0.021961118244683962, 0.02727888967988431, 0.03699299885725107, -0.018951593145069143, -0.014730144730578845, -0.087934930999359, -0.03941132408764163, 0.01369326405956573, 0.05278165109402916, 0.030256065092812673, -0.017207561903887413, -0.06379986656761222, -0.14027782039444375, 0.05817135026360279, -0.029760558002357402, -0.02265090335798267, 0.006645488923958326, -0.07099150291969217, -0.017666667963934433, 0.10220076694450811, 0.02552589509936773, 0.01814482247901517, -0.07992804118365478, 0.11331900813874074, -0.07186199486624151, 0.09709206215839326, -0.10682646078062115, 0.07098167369766036, 0.08172408185270726, -0.041638948583068214, 0.021343531916463647, 0.027651944650221374, -0.04110282839893275, -0.0731914920920665, -0.06655477635871114, 0.027325041500803088], [-0.004298987123303613, -0.028501506234180955, 0.048829158323573985, 0.025661304573856163, -0.03815662976762975, -0.06066983854776982, 0.026428708840128743, -0.027152060382893754, 0.005010602215907472, 0.07961512090874623, 0.02537140749559862, -0.043551060194206626, 0.008114615485361461, -0.04811583615706423, 0.08124263744001056, -0.028364010143907117, 0.010468753623331915, 0.01554284216770157, 0.008043363292441343, -0.09892166053306241, -0.07305529591383376, -0.022847139094750585, 0.016133743962541167, -0.006958901194858777, -0.04834324777576092, -0.06810571285484342, -0.020281718768007474, -0.023661613429748873, 0.02590215262882325, -0.016481571244179465, 0.03044133363815934, -0.03003434890002268, -0.012927814542722309, -0.01757899680090884, -0.039515499119487055, 0.03157326007217959, -0.041092803335125466, -0.026346874932043907, -0.003693099820566409, -0.06552756803574862, -0.016411693748070937, -0.0359263964625174, -0.01960474726072765, -0.0030268212194066936, -0.04040173909187603, -0.011115505448992213, 0.06609775350822603, -0.0013030239633274297, 0.057844474912738204, 0.017500612113316386, 0.039101015495028424, -0.03911608489775654, 0.005298611987644476, 0.0067636239764223135, -0.030942272449134722, -0.04155910627577502, -0.07526976868263223, 0.0755664630636056, -0.049113762650467366, 0.06799443213226572, -0.02361197094656346, -0.04356249006880862, 0.0314419646805774, -0.03188000730282192], [0.02871151117123786, -0.016809532556118577, 0.024265101360929797, -0.04890078080278756, 0.04198956933197431, 0.024646342353200124, -0.046449374233299714, 0.13348841218354865, 0.027280332474484997, 0.11568605697547357, 0.08082573045370374, -0.009537596686847588, -0.02082286809803918, -0.020377766037773973, -0.09243039984089231, -0.03514498081998682, 0.012463566351619956, 0.0770724956503237, -0.0390308741974417, 0.04455058591428075, -0.06326551756043669, -0.029613633269447083, -0.02311434054059753, 0.01877929550337012, 0.023097625164165, 0.04860559811265125, 0.03893314584939692, 0.012281849577152355, 0.019716407049460743, 0.08023291598557271, -0.025805669102505726, 0.039129689142117535, -0.09132505941344171, 0.020775516606223822, -0.024407787749448098, 0.0001298643237848896, 0.05253228834973762, 0.008315768156893003, 0.044708722357905635, 0.0744363639041789, 0.019652213135981315, 0.0591465055600758, -0.016493820127705467, -0.0004146616732562353, -0.026396266665365695, 0.05267832355714904, 0.02091477173558349, -0.02561920911838637, 0.007811955793538252, 0.05260714791451184, -0.0019833330533220906, -0.04792834467444851, 0.006662549788250213, -0.10003366857354212, 0.038828781130858615, -0.021280256721303487, -0.02370377172190056, 0.044229310908624704, -0.06895113770786107, 0.09834333242695702, -0.024255886023140764, -0.026428163594979823, 0.051579638643499376, 0.03579451667223107], [0.12380579690028443, -0.010667513089501623, -0.0060814536213916045, -0.07471674006783138, -0.016773698025774986, -0.036437782947070355, -0.022666157009980762, -0.08809478502298948, 0.08387334760650404, -0.07154928061968918, -0.14153261435733572, -0.060024497673503804, -0.030498503037915042, -0.058061248104975545, 0.055472705818082495, -0.00696192984989154, 0.001282166644309018, 0.030829439694341296, 0.014445814095037684, 0.04942511227653502, -0.056037078696455696, -0.027653840129486074, 0.03363642035951587, -0.12801433195902723, -0.06945730505055088, 0.02530392890687325, -0.024256239235943382, 0.04728057118589236, 0.040869776793386776, -0.060512828576743206, 0.020539284583243046, 0.06069490733427334, 0.007446561799113096, -0.04936943164801645, 0.044415899373870575, 0.032093785118470115, 0.02740598318263889, 0.03616037474746356, -0.15125079003538514, 0.0444940659458781, 0.0913244474671074, 0.02205357330980881, 0.009734284311159658, 0.035175464902546416, 0.0170829661437698, 0.03291992499991638, 7.429673204693262e-05, -0.03872444298654912, -0.050725957164758466, -0.05041629571121931, -0.06934912133107526, -0.05392911546781225, 0.08895737301233964, 0.03808758267390708, -0.03156865045574747, -0.019717808660202674, 0.005685013812683445, -0.03311002398010891, 0.0034101162537406218, 0.03927493992784774, -0.0018052806621469556, 0.016971357872980607, 0.04477458421040611, -0.01374472928976272], [0.014384097419006278, -0.01562592813392827, -0.0014409255228217265, -0.016401355178333295, -0.026711961415333243, 0.008773773515686064, 0.028614859618895157, 0.007389490420362818, 0.02518951529877912, -0.03727118327583105, -0.060797808368382576, 0.02106387778558461, 0.03474325688226464, 0.0025181722360114395, 0.06808608868717274, 0.045845712523722944, 0.13538927278276322, -0.010142361569023489, -0.05044948264993242, -0.03738255312411134, -0.02856195240240262, 0.024043215663336025, -0.10899892256017994, 0.06659688330231833, -0.012086303022255447, -0.012464957018970033, -0.05451506228025941, -0.00576926157251395, 0.0006687092499319552, -0.0061591489455327594, 0.017125078507211268, -0.02978091537631743, -0.04524552849144853, 0.02769475281360455, 0.004983458976825686, 0.009959147232255529, 0.05348895379123469, -0.0516473010900232, -0.04319616620479783, 0.06349918146729751, -0.07489691984637724, -0.06613530057419229, 0.0413082604931827, 0.012030926504194376, 0.005315025550954725, -0.0046294992162375795, 0.001579249609590261, -0.004652364352008217, 0.06846019475102384, -0.02010951726827948, -0.008150594414719355, 0.09063335133333912, 0.0013894497752655875, 0.11273385176805482, -0.005302275605531312, 0.06906488619954729, -0.08360749962039266, 0.007760217152464891, -0.08002800007963126, 0.04265138332873478, -0.06125907553745147, 0.01433252687133917, -0.014253044145049245, -0.0584980947311061], [-0.08179003036349884, -0.02581144123272946, 0.08791506319468365, -0.014823233749227494, 0.046326683734321736, -0.0028810998958757185, 0.04428138906602303, -0.09227295887328474, -0.02036408470488768, 0.04795222028358222, -0.008245620098728822, -0.0043666511910272505, -0.021741609781212163, 0.05805242543820756, 0.015026744084419784, 0.0022234607147753956, 0.032479159263017574, 0.029709845445876376, 0.010737267294885828, 0.07813689015938587, -0.0030449802755166547, 0.014045213909828198, -0.032474007889788166, 0.007581963926813707, 0.08019406716767391, -0.032489415162472356, -0.05725508386524099, 0.05034396447506947, -0.007513825361104632, 0.004848944596896258, -0.00227856592594894, 0.00399625053783887, 0.042958286709046604, -0.04238217181645853, -0.05110230827855708, 0.004291538991725067, -0.08113745699837058, -0.06934967616195822, 0.09428173660799624, 0.038257928051462047, -0.0005079285323851381, 0.06252879282658519, -0.052558198006479026, -0.0159403649078425, 0.031489162498515, 0.04498571326792597, 0.02590621289833874, -0.1283519423950543, -0.048895530724718306, 0.024095577370947825, -0.017978265321919498, 0.12830107177309316, 0.046798261269894274, 0.028187391588771416, -0.05641447169268545, -0.001782754566214097, 0.012182639910592763, 0.056961675183896436, 0.04450384099096373, 0.05217383316696308, -0.04666460368564179, 0.07132443156650438, -0.06972228185106552, -0.0270677729064828], [0.021757227904249173, -0.007570668639810589, -0.05081253459707972, -0.041494532340471464, -0.07819865219199601, 0.0268687767615179, 0.06366834132012843, -0.005070637645870045, -0.020220668709713598, -0.07436353762964934, 0.046123662373665615, 0.11168773495006018, -0.09078522772506811, -0.05371147442187549, -0.0343246320592973, -0.02850235862010754, 0.011482704501553868, 0.0815319143863688, 0.05094185578750948, 0.026647691935428094, -0.03656392112395906, -0.05654976546024041, -0.040243230155083846, 0.07818918092747673, -0.0031185076538376494, -0.022568638931773695, -0.009281065924403965, 0.041649509642595596, -0.06630892196805069, 0.07146193543115727, 0.00790324445581547, -0.010927021008698799, 0.022367106432316305, 0.011030717957248056, -0.01738454631631897, -0.01276381641991641, -0.043884185629137804, 0.03315273936005302, -0.026869745013135445, -0.04829834393347266, 0.008377372972843198, 0.0671317724417405, -0.002441772236330205, -0.030713751602757362, 0.020399829659098583, 0.09781875109809578, -0.07333230325024521, 0.019304155930813145, 0.010358438816579137, 0.05866631636243249, 0.05004847116089375, -0.009430234219286585, -0.08508096959547758, 0.04073762212420126, -0.04218360105941664, -0.04781761175794053, 0.0580004630561575, -0.04600489133390134, 0.07085435919119727, 0.016962719995100264, 0.016117913193029427, 0.015519214993949964, -0.08275288972987652, -0.08972117404580372], [0.010887073288531975, 0.028688703962347493, 0.004172487217033547, -0.041493759140237355, 0.0009557105692440138, -0.004143350427004828, -0.048343784425583035, 0.051213327579074305, -0.08739213831762983, 0.02973598201611977, 0.01941126328525549, 0.050998149970129275, -0.050775917296087346, 0.005121834362133629, 0.10966038990981584, 0.03343980138578245, 0.005080118196584959, 0.02723175664852338, 0.004352587830587651, 0.11065706014643037, 0.04968113030450481, -0.004324208193382885, 0.012744661874178784, -0.019738279507357036, 0.06110665918600917, -0.0710190156363817, -0.0810515354640025, 0.07367622080805229, 0.10874897185954512, 0.02365296970644646, 0.00569412591034288, 0.03319703149066626, -0.032681138306851265, 0.008649105143682442, 0.001965186411294456, 0.031646273610793765, -0.07869080888265284, -0.025609123142744997, 0.04267872292533627, -0.03412264120321379, -0.0501723260521782, 0.10314021891534504, 0.0019252497437231449, -0.02923978160755321, -0.08547761518697043, 0.03683755337775151, 0.0353117082333692, -0.015089638536256144, -0.055671031601353324, -0.001239933137981969, -0.04221710667229821, -0.04758291180032511, -0.00521303117596394, -0.05310323432621137, 0.012457653487970143, 0.030708259022277803, -0.04240784265002995, -0.06910681323135787, 0.07885652798213318, -0.0474908185709439, -0.033332140140889775, 0.010758991685630251, 0.03027272483900301, -0.012945958118615555], [0.023273628132132428, -0.0202528593864632, -0.04905152591334102, 0.07203988031308685, 0.12568528143431, 0.08565939696286438, 0.0071623168687629584, 0.09260246980050553, 0.017965740575737507, -0.02410659702638283, 0.023555725689456648, -0.004767541526895967, -0.04965496674531372, -0.04537211126346046, 0.04050973023756285, -0.09326394899378028, 0.030513513280782792, -0.08230640114384469, -0.1071355891631204, -0.0928757787913919, 0.0993365815391745, -0.009911311950764412, 0.0043731109879760295, 0.0716832047997756, 0.04718320250080706, -0.07028162943232409, 0.04389144842151911, 0.009302558659956578, -0.01725734998521187, 0.0012268764362889065, 0.06464026845929513, -0.04474806481108195, 0.02024778444107845, -0.0004877641028529967, -0.09077052046105395, -0.04051990413994801, 0.009758758122049625, 0.06552567062259321, 0.05057485375559263, 0.030163786548075906, -0.041177639180423976, 0.0909750448049142, 0.010871285303838064, -0.050829134623660024, -0.009238096591196123, 0.04526738137122182, 0.00038474176546047985, 0.04479343099125374, 0.05574496297686452, 0.020229854510931098, -0.04332052435699628, 0.0068414936346410755, 0.0022812202151744356, 0.09391117151720232, -0.08214166218784273, -0.0068095621017863865, -0.029501179127570675, 0.016925389746736748, -0.12311559199775042, 0.05631219403764294, 0.0006944034732866584, -0.09317147871886473, -0.018238967596435052, 0.030757242947939516], [-0.08038025604580701, 0.00016274650695758517, -0.05341048480618119, -0.02808148473427404, 0.001350492264799762, 0.00926563702270888, -0.023776086618407317, 0.013778298351432619, 0.041314108067758544, -0.01408729823537365, 0.07230509064431516, 0.07385296826470708, -0.021652724120315686, -0.03221581305701946, -0.08405342877703292, -0.006392716620890114, -0.018356379918531805, 0.03934802861769229, -0.07624942563913345, -0.014010381010309074, 0.048928980686095525, -0.03688860392548177, -0.03850507230970641, -0.07308152304844037, 0.13235896693711488, -0.03775309664036353, -0.06567743306828809, -0.040600576553588126, -0.03910780728940022, -0.013606238508943833, 0.04168759302229704, -0.01506759541300103, -0.046609615990807596, -0.0733036638477124, 0.001103963301149612, 0.002148547693704398, 0.07732376049645327, 0.00466931576114584, -0.0050006748787714056, -0.053066032323619755, -0.015452938612397096, -0.02214630447524044, -0.018696113634277988, -0.04844971378756601, 0.027189750927860606, -0.0071945800478445746, -0.010119378881846424, -0.08657240228033637, 0.02493279155581977, 0.024597988538750233, -0.04238243507448196, 0.05000868176705618, -0.06893069994081702, -0.0011045972006206897, -0.013698039224564265, -0.06652737322660969, 0.009581428815040432, 0.08599277857828451, 0.003416044480046432, -0.02338613015481429, 0.022578129477718725, 0.005339666121559737, 0.0014021993951846864, -0.021493127452272824], [0.07182061147551681, 0.02304983064302604, -0.026701900567688886, -0.005455017527284315, -0.0374194193212877, -0.030723342654170645, -0.03236153603253937, -0.05729138713567907, 0.03925841513860083, -0.014699813734772287, 0.027987669162667043, -0.03384646903797815, -0.003048766365296972, -0.035912973406423174, 0.03634873168507599, -0.01254706973919952, -0.036914690629739566, -0.08291853469908918, 0.01392326331322554, -0.03577884815710449, -0.0007969708162907541, -0.024836120992139915, 0.04819385165650474, 0.027483460309958716, 0.02258762140485019, -0.031118816023878948, 0.023551203699579252, 0.08661207564913327, -0.0420317419968749, 0.008704441000915138, -0.08329803616130821, 0.07063805280374365, -0.02009759594498243, 0.03952620238976724, -0.08703617011526743, 0.09078944929190269, -0.018024734105664693, 0.027559856687839848, 0.007617469744583498, -0.012903223236316451, 0.0851453692058913, -0.08323890344502072, 0.015087318186671587, 0.045994552149428145, -0.0015079618620717848, -0.005968525925982165, -0.007206817771367195, -0.06200500269312705, 0.0019257237030308862, 0.025896145548607568, 0.0034647842096952584, -0.013752019819622914, -0.024734848874050062, -0.014106612057825244, 0.0635256760849726, -0.10539098170066553, 0.0020239141897824358, -0.016554123184823737, 0.07352940534636648, 0.002802780636746115, 0.07500006859987368, -0.10727264530388811, 0.02321254305279537, 0.014145057996945473], [0.07023257125630092, -0.0829006236849907, -0.007830490803371754, 0.0033365470768705325, -0.025041454019618246, 0.06144645365914711, -0.0171060335711086, 0.10277102807012489, 0.05324402485626907, 0.04802435392371869, 0.028248864460873064, -0.05372474039517124, -0.021773653114181495, 0.028928312531328663, 0.03422179807789401, 0.06602275436531875, -0.023609336265083186, -0.04344430652434228, 0.04339131431888884, -0.040892317296200686, 0.044108908669704495, 0.06059582756984952, 0.023039207492295783, -0.018060468451079774, 0.002074965763755465, 0.029974555439611486, 0.0005144463822292582, 0.11103073200939031, -0.050036438069346066, -0.050642411243708246, -0.04934066803360023, -0.029778282948797242, -0.11005266097649521, -0.031802149047600495, -0.03299586019847448, 0.003965557115636525, 0.02110211611205104, -0.06264038440087648, 0.04545960417815704, 0.09102697871611856, -0.010519986344186504, 0.07951775558028808, 0.010050487205627914, 0.10044613040006671, 0.0564313367925519, -0.0789891123160193, 0.0009408242935942706, 0.05325145280921499, 0.0015428353282774733, -0.0018628996267607161, 0.06413280467563483, -0.03585305041779577, 0.000884672066119237, 0.0163455694801278, -0.016858989397483946, -0.0010166732750725126, 0.039144586071652665, 0.021861601236807277, -0.04084640363765549, -0.05576668268781266, -0.03985567876489762, 6.305653957503404e-05, -0.008078179178895866, -0.04202019893662785], [-0.03021116008172922, -0.07677357758780433, 0.021104799077777302, -0.002021250862184403, -0.06362886952677517, 0.0014455537565828008, 0.06781265201444191, -0.03737240423391337, 0.06642448297322474, -0.016337069444177864, 0.00999183135688229, 0.0049371610899395435, 0.07078762224636026, 0.008002117673679997, -0.05767473121182731, -0.06621400277668725, -0.07742420513600495, -0.08646755087286216, 0.0023301723598575692, -0.04840522099173817, -0.0040816028222244154, -0.03555024981059079, -0.03893048613298166, -0.02428635723093312, 0.035536436916659864, 0.046928916763844156, 0.018747044926318318, -0.04999358835400896, 0.03250828853262873, 0.03479453603537694, 0.013871778579162998, -0.030487435969419965, 0.035802815189365816, 0.021355562954678425, -0.15742503085040938, 0.03254974306960053, -0.09665860142944475, 0.033514920753043034, -0.00778183126570547, 0.06028649382580217, -0.004957889863799885, -0.04478078254159787, -0.0074424839613726245, 0.05352830127799015, 0.0013256543909386, -0.005774797633843261, 0.03755512378507441, 0.010624752473574845, -0.0002993792042516363, 0.06899645270543961, 0.07854511982766577, 0.030977652408327127, -0.014443118225536926, 0.07560542245366206, 0.05975656156740545, 0.03630979005148878, -0.06142114262053917, 0.007105004053676964, -0.03756111697933816, -0.008031331526130614, 0.012124705898323526, 0.00505881404717933, -0.02399996711306407, 0.06429387342843619], [-0.0856675657542224, 0.03687983759803492, -0.09381707266321938, 0.019324124067607033, -0.04479543309850105, 0.0443610387881642, 0.004366511855461581, 0.012511061425503775, -0.0514308725893132, -0.03306078437278467, 0.010466058861477551, 0.02947473232957905, 0.14794170109280408, 0.011256045107881292, 0.04929733949149316, -0.07863703868119547, -0.06716968238529397, -0.017955197557287122, -0.060479231683329394, 0.07507449940547874, -0.020719172816746532, 0.06981072757971543, 0.07509385496966156, 0.002160702144780795, 0.02534471490822297, -0.0028334512871675986, 0.02719517529945984, 0.0244124500732361, -0.006245249211388187, 0.02550483558485854, 0.08705980894502266, 0.03601275793747637, 0.01645536543666025, 0.006301812458218081, -0.0511477166387239, -0.0518863277194159, 0.01633197115361801, -0.06916469642217239, -0.03870538870268248, 0.06472609706706717, 0.09668319996727046, -0.08414348850447166, 0.08215820972268414, -0.01067924637567047, -0.0007578713422980268, -0.005728152363778659, 0.054575719970787154, -0.08119992935687292, 0.023039741637125685, -0.04772315170815244, 0.02882917426780055, 0.07792298234262798, -2.1078166880855364e-05, 0.018897685607527866, 0.02068548854563433, -0.04038557041497764, 0.07634931678654469, 0.08618966210841195, 0.03544541295342239, 0.0037014732810565546, -0.02332916064465298, -0.031642534652556654, 0.08641029635862561, 0.07143874772328235], [-0.0032153907445372693, -0.07979854223815037, -0.1430381998295314, -0.05472130988508328, -0.006597326269244363, 0.07074547961344885, -0.03291360888764823, 0.02549703088758216, 0.06582057822105805, 0.006492064376975313, -0.007194703856154375, -0.06610253970626116, -0.06073417461719558, 0.021016205224619427, -0.010147362794131193, 0.006188766115740888, -0.002387885240559002, 0.03354434007044249, -0.03963269926667708, -0.016949382050900227, 0.0957716651594226, -0.04039530013939864, -0.014221706895305403, -0.029768523836444363, 0.022464851250254138, 0.05163861030227503, -0.025163486712011705, -0.021789714721160657, -0.014090698924005827, 0.026760647228347676, -0.03734510231303127, -0.018988845813781498, -0.11981388377400162, -0.06978866186318389, -0.005679267313094597, 0.04534898896117, 0.014903577666905652, -0.0554961876188089, -0.07072361858327353, 0.008822677016185086, -0.08347919024334359, 0.053837434411665414, 0.0032272450291311646, -0.0811819274380174, -0.04878803742145708, -0.03658324610846436, -0.03905211908154589, -0.07525298097336351, -0.044177128610574296, -0.03456749867153721, -0.0359253557966813, 0.056970412741048894, 0.005294603588286411, -0.0501670652794696, -0.016900943335835177, -0.04442434199640256, -0.015152624499166687, 0.04421988994122597, 0.012741598547575547, 0.11544029246760579, 0.01898720228529912, -0.046143490947115236, 0.04089808298298904, 0.05454476334689492], [0.05526377852860684, -0.05526751415308168, -0.007456815497163629, 0.05716513640724391, -0.08509166223436541, -0.025224355596921766, -0.07207123669257587, -0.0471019095352054, -0.05113680845471211, 0.06316331492419913, -0.01184595963786747, -0.04360604186728774, -0.05230598823554502, 0.007155272353723694, -0.0005624341146680023, 0.06788600748218918, 0.02525465688194215, -0.07231670843982996, -0.03176832311237848, 0.05404682354619368, -0.03136941337301989, 0.08760912481043236, -0.055471993185374664, 0.028921341780936378, -0.0434979541336789, -0.02573844101185925, 0.05548675236795272, -0.0064178608935178995, 0.04108554276368619, 0.023904784938290714, 0.03807596692505249, -0.04486027907346536, -0.011191197107669804, 0.021427993085376566, -0.04288465614308781, 0.0823021807509537, -0.0392559442240171, -0.015152468830923938, -0.050838910027199626, -0.10825340479300684, 0.09075809089660312, -0.01032067485318534, -0.022623115688407514, -0.010036626259380337, 0.07171396022161194, -0.04874524479502121, 0.034323360439925656, -0.021404538881178912, -0.030136429149108405, 0.028640764814324527, 0.04991368650979609, -0.025956018643907244, -0.038832746751116906, -0.059048252199125704, 0.05573535689418089, -0.02905481534611567, -0.09339520546834884, 0.07121333701488489, -0.06918835307883943, 0.039368701951467945, 0.009264545708748424, 0.014541925323405648, -0.029515408566456527, 0.01846515719062372], [-0.08423560512750129, 0.029700391409113774, 0.07864088276735275, 0.044650116146678145, -0.10200217780392927, -0.04971006140085551, -0.009485075914341752, 0.024594047881123435, -0.005386773484058646, -0.024911088407471423, 0.030067206029404176, 0.058798543444855, -0.011732619122188542, 0.03681651801696525, -0.13026173363912114, -0.04735137459596569, -0.01622602663646434, -0.024676320553877112, 0.01680884830667749, 0.05120213475482824, 0.025590650294418343, -0.031427132178928466, -0.07691140306928573, 0.02813093618135235, -0.09284194554571747, 0.03298336367602334, -0.00951811599161085, -0.05938863525196599, 0.01450868525647801, -0.0001452651209691615, -0.0018484424281534702, -0.0042539188648861226, 0.02118916728138322, 0.046690968977601124, 0.02508285532058819, 0.05112044585623759, -0.0022293924654965326, 0.08174454023135902, 0.02884540200216004, -0.02746069537709511, -0.055250043751667206, 0.010394308247634638, -0.06598930204462473, -0.049162910521670974, 0.01207572113044751, -0.030702952533153062, -0.04713958874685639, -0.0017412527764875119, 0.0036707882356201093, -0.010396188216506586, -0.019068999048779393, 0.043165976354596236, 0.017295193011333133, -0.011284722787643994, 0.1244670535868185, 0.009789981113660558, 0.057174893311516005, -0.028333819387949773, -0.06883891329482855, -0.039989742947151886, -0.01353653823322448, -0.025082502335189476, 0.06749769512888923, -0.0060629922468143065], [0.023307698038940988, -0.0023476529020176246, -0.021897800620602252, 0.0019190884836454104, 0.08657267268411807, -0.03878726120141153, 0.03873886776399886, -0.051821191797940196, -0.023214641010097674, 0.0001809792306338652, 0.016484431368308787, 0.07490930787229887, -0.0025295553856648253, -0.04260902257831114, 0.03283207765714873, -0.01839335295626716, 0.012055239810725623, -0.005870119651656275, -0.09815939417774056, 0.025672985786078416, 0.029464533825044315, 0.046800608225057466, 0.09093710204353507, -0.06036185588840394, 0.026087565456068922, 0.02067251911646748, -0.021166837070541636, 0.02005689376036479, 0.025235982154205833, -0.06155282859280496, 0.012436127441502975, -0.04636520912847788, -0.03292372510438919, -0.08963814954968288, -0.02390833716939592, -0.010281871589256744, 0.02777196568194782, 4.545316083646464e-05, -0.07789731499815095, 0.04354505267211933, -0.005989528976449043, 0.024666439730349196, 0.04878714139684764, 0.07185239035315646, 0.09905692168757708, -0.003648608294373923, 0.01571415754469506, -0.054465459991733384, 0.05361890565290892, -0.05984585335710698, -0.09117897934135975, 0.04194082681275712, -0.02634965360800408, 0.03927509869550955, 0.02061088227021417, -0.08232756627792243, -0.13736455151183138, -0.055386752259305505, 0.0008329458768584984, -0.061709023668279864, -0.03296943195225957, -0.07368763456818749, 0.008580132667610069, 0.004587402065352867], [-0.024313999205519125, 0.0705624534513839, 0.07564603229304703, 0.02855030514970529, -0.09090217192851853, -0.05579527815707513, 0.020563186995406355, -0.031746951954082635, -0.024601832458663896, 0.04540471005563, 0.02580307506411415, 0.06637482226258651, -0.021678343157645184, 0.06945937288986585, -0.02798785446291415, 0.07573575721490287, 0.0053454567275632685, -0.04346230553273749, -0.08238902681897103, -0.01522665129847923, -0.012941705593878538, 0.04331846804378522, -0.00558566389075095, -0.02184111317533815, 0.05439860719380184, -0.01135545614749835, -0.029104606846949682, 0.02902213299627416, -0.024740061083102186, 0.033274532989306396, -0.03014886696772751, -0.011261139300440535, 0.007686097955637345, -0.018896232719947195, -0.0006794017999666637, 0.04118755423694244, 0.020738522214982097, 0.024292645893268506, -0.032094083722859004, 0.04307440802461125, 0.03381800510007917, 0.05073083014300782, -0.03668701468292876, -0.008710474513383864, 0.03199829418152328, -0.030749807001038406, -0.011420909410624534, 0.09726787830039939, 0.09857881764500652, 0.06262645507507875, 0.047405708183079334, -0.051479957110518615, 0.02588830211582283, -0.01813812711483649, -0.05346595479787622, -0.025708677152247686, 0.005841968443186843, -0.027645631307631726, -0.027819572070783043, 0.040004136751145655, 0.007278476631685396, 0.011791413660858162, 0.005650409319497531, -0.03412816248194002], [-0.06922433552098965, 0.01568588662396834, -0.025609217206135012, -0.10155984125762456, -0.01982764072706914, -0.0551653366325404, 0.03528716559689886, 0.026346052529972727, 0.025096893731456512, -0.03358967414080607, 0.03694893459446248, 0.016144752089922308, -0.020700780245062774, -0.0228969980307744, 0.04508857060839361, -0.023920617162604466, 0.01533696797011605, 0.052222714059323494, 0.09643636558142561, 0.08403828352314048, 0.04549842037281538, -0.07606000918299477, -0.0348022012148134, -0.02768258335309232, 0.083496675494596, -0.03532088987619851, 0.019504347422321308, 0.005094556030544115, -0.047231056504667156, 0.01928502474440742, 0.020116990247879184, -0.06342620960879645, 0.06176463824082566, -0.10538467074408872, -0.029837742061220876, 0.04909191327887356, -0.06026862183953294, 0.017691100495775228, -0.06547608724365588, -0.004698428810756227, -0.11686318988936942, -0.04255629742265407, -0.07792930129435428, -0.02029213332089514, -0.020972352553360656, -0.03402517884107919, 0.04030070229218431, -0.04479418442810947, 0.032041365607596586, 0.08229085324006032, 0.007023800264313308, -0.04331888697692275, -0.06310112398972334, -0.035849561248547886, 0.03558983186828476, 0.007858518841879021, 0.047315303571165264, 0.038907584894976255, 0.007112011914742776, 0.023914768616898986, 0.09370408396084702, 0.07150143695407665, -0.0152909829664439, 0.049986360328127574], [0.029589934111247534, 0.05739626540627814, 0.03392175946027537, -0.049202885666428844, -0.08180642425415874, 0.028922031925452993, 0.09609673071973138, -0.0391769536176691, -0.009499966374750646, -0.052313160056513035, 0.05948937356135462, -0.11642850821198147, -0.11433211065465726, 0.018941366313204692, -0.004158982216699641, -0.024224620455130446, -0.015207583237901551, 0.027121985409093927, -0.020900257624218717, -0.055403077568953324, -0.04683890107581478, 0.044867888093536284, -0.02650347105191942, -0.06996708380767867, 0.005160784848026987, 0.025506085159575698, 0.06712265403754483, 0.011005783048374967, -0.033320449751928036, 0.023941012663382905, 0.03672787726427835, -0.001965014726151424, -0.0022526095023610677, 0.013138695792282724, -0.0035282859733495792, 0.012632659973294198, -0.05161441724908352, -0.05810588202655689, -0.04223000187658804, 0.032436550927174755, 0.0130712510586519, 0.05254000183395239, -0.009429315500943591, -0.05776261330324432, 0.05780868330219623, -0.000947879445368775, 0.06482426853514903, 0.030200858489293887, 0.11054193637336931, -0.01110021203710948, 0.045493427233241984, 0.04502068600774669, -0.028038114522459412, -0.008711672575792893, -0.07382893529298765, -0.07822601793929386, 0.006392689846361804, 0.040052905515645054, 0.032225080046044935, 0.017173835657116564, 0.04358894866238899, -0.02978423644212513, -0.013764982467935895, 0.037250461671851504], [0.021875799332303023, -0.010616138254660514, 0.06671019049886939, -0.06525591756549477, -0.0261972297884786, -0.014313749149370844, 0.04124123932595538, 0.00012047068716677136, -0.06371495489760765, 0.02596113150758343, 0.054929383894363235, 0.03734051776716553, 0.03127204597659046, -0.09466712740107708, -0.04545113071452772, 0.024348747676475123, -0.0027722719747748695, 0.026393144566710065, -0.06395996387045931, -0.003105954630950807, -0.07019454163041836, -0.09867566856335494, 0.014939099944028283, 0.04255716083761017, 0.012405502981440171, -0.001666573925030963, -0.07889363810129399, 0.05081608069602745, -0.002224603257942403, 0.09897282728832194, 0.04759405981369671, -0.10127412759395024, 0.03813576778869091, -0.07053568118956755, -0.03836031511164241, -0.012665124754636062, -0.004750871179030005, 0.020080075709071585, -0.05166198110882161, -0.058118722804786756, 0.030335143640098032, -0.0006692395934777797, 0.008807168942358633, -0.11079774098280915, -0.00894678892456472, -0.0449886175388241, -0.04649865366424316, 0.04656473941993506, -0.05533975399696156, -0.055199614390635754, -0.01671856016500181, 0.02274302040309271, -0.0446494864338332, 0.062333686904358185, 0.07322835834781805, -0.044519799854060016, -0.012378497950964181, -0.039329050504274154, -0.08512465108892155, 0.015304369182286285, 0.037052136140617066, 0.10161449023454772, -0.04532602467992657, 0.06749006385521618], [0.06779909984566371, 0.009993101205366797, 0.030413849061584973, 0.044106949591491064, 0.09970710429584712, 0.024132976766793043, -0.0030374219032768563, -0.043748130816456524, 0.015421026879023853, 0.05172814064409302, 0.012354688946040087, -0.039392072722850946, 0.004499027630547572, -0.006523235947243167, 0.01337132648942595, -0.08393601784027259, 0.027819026002312987, 0.03007341084450923, 0.02246849162684506, -0.0001900509656865352, -0.09121355554839779, -0.000975948373881238, 0.05357419778150946, -0.043443068651483174, -0.10047328065214192, -0.07780992776576871, 0.01586069258236753, 0.01883308245723812, 0.04476456628830918, -0.00279100075728541, -0.07577802633293194, -0.0413407020173611, 0.04135763379053835, 0.007096114919957923, 0.032821352949870694, 0.02196015090896427, -0.010352071143159171, -0.008788672483911165, 0.09379782916437839, 0.020944213278781317, -0.0064946520574903546, 0.023002183134238144, 0.01125844404444779, -0.10896295150956797, 0.032834226318359076, 0.09197132205983706, -0.03941008472585436, 0.07343989557798819, -0.012973878918909606, 0.014822543954463082, 0.05406134473661996, -0.03636556389498223, 0.06275541938121057, -0.061327233820220206, -0.044201989824617184, -0.02997730294060194, 0.033436320271430384, -0.017216757660474293, -0.07677030340025179, -0.010936561573915097, -0.039609161252968025, 0.03693590559533489, -0.01733598818186696, 0.0035746306429687135], [-0.020479451716324315, 0.021917227646909364, -0.009272733843803168, 0.016425015456312368, -0.13098590288432221, 0.004911911041952234, 0.020905797354339815, -0.01006516272752397, 0.03380942541406343, 0.03730528848806231, 0.06587274907460586, 0.005293785629641217, -0.09666153257940976, -0.11543515418837674, -0.08090518568530049, -0.0019145957155825759, -0.007945116861406623, 0.01395221947123513, -0.03157968798210118, -0.037198421546838514, 0.028034154568718446, 0.03312918565909219, -0.012962789370763866, -0.0019433647112972229, 0.020420958135636828, 0.025473197288972904, -0.05777975073091428, -0.03634396807743819, -0.06215196095986741, -0.025602650341388592, 0.04102904211494406, 0.02759089582052657, -0.055462322441391564, 0.02587337687963489, 0.0043357315646970675, -0.02494706599925686, -0.07103693997064789, -0.008829913684344201, 0.034342358396552815, -0.10925292968211248, -0.02000724280823926, 0.1138585207245201, 0.033973284641040456, 0.013123522799255542, -0.03723347374241059, -0.03426083058870395, -0.00420669924239947, 0.08095683868927527, 0.02351580529492595, -0.04405065123803878, 0.05943671722239633, -0.0147782391440991, 0.08572894333914906, -0.028617774354437783, -0.050672572859928156, 0.0088201256191228, 0.04961500511340847, 0.052398875062508996, 0.008040398408613088, -0.04990641918075522, -0.025523560804549976, -0.10193862824708008, -0.04611960223302854, -0.00901343028305766], [0.019647575110868447, -0.017145032329344535, -0.0028778768685972017, -0.02001038675642884, 0.03793250610251972, -0.045412061129569165, 0.04230255783296541, 0.09903943711622666, 0.023879483703425908, -0.026622146563996894, -0.02708573253083233, 0.06110600742416222, -0.05690135876051062, -0.04817439810717383, -0.05881352843385686, -0.06457470046235952, -0.052771193180561886, 0.039896224344949084, 0.05567367687170646, -0.03520750688917331, 0.010471950709267942, 0.03834320235371893, 0.005079259282473224, -0.048231892825437946, -0.07426650271318593, 0.05103429819376983, 0.025060844793876397, 0.02914067319055221, -0.0559446167705273, 0.011868140465430572, 0.031769276689589954, 0.015861104311783756, -0.03762935491043802, 0.051126876499610875, -0.07715706497960197, 0.046908550928802493, 0.054601570636142474, 0.07941467355673963, -0.017298467873537237, -0.0504788387165739, 0.04009701340279206, -0.03531570466797456, 0.002222108891701059, -0.01603426332317166, -0.045561514864607834, 0.016212921378328478, -0.07030742100841388, 0.02991090381055014, -0.04883739497056046, -0.08746564130577009, -0.0025308088499029673, 0.021800801736606576, 0.029139597562675947, 0.041333105176942594, -0.11887679193540768, -0.05076746022866828, 0.005386754333728483, 0.07672125142053257, 0.039585074728215514, 0.09603217457167015, -0.026513444689617256, 0.01386015130262465, -0.055556915509964284, -0.020422871177425885], [-0.03713804204109456, -0.03202126287130153, -0.019872181545876444, 0.00013725649177467192, 0.00112190897913055, 0.02744854374200706, 0.007070485326940007, -0.017376928371225727, -0.02639420217284395, -0.01551249443154961, -0.02267980055155516, 0.024797783034678028, 0.043715623686530654, 0.06434896659400466, -0.04029007363750669, 0.0237068773884036, -0.07044195943950032, 0.018848169560269804, 0.054683208033521884, -0.007555410787360607, 0.0541763016258488, -0.057506361567228506, -0.04488336469596682, -0.006859432906087764, 0.0516294195376244, -0.021083371374745266, -0.02290789094862721, -0.050084795473284455, 0.010247040164256217, 0.06296761344276955, 0.035389689755905694, 0.03518617155708702, -0.010453789625074848, -0.02845141913152593, 0.034206084287779506, -0.0016117527125612725, -0.008768540053357672, 0.045368002517058685, -0.009989774879385276, -0.04231409100916992, 0.045920953601808555, 0.004076970135887304, -0.05237789152320328, -0.05621023607758591, 0.0048190274573504535, 0.11805701586016008, -0.01984043661123688, -0.01698439472108443, 0.0769620676294118, -0.0028931374861696337, -0.07315862438047571, -0.07943821693021137, 0.06195588672159747, 0.033655986821397595, 0.04172564932458836, -0.0029171467205417493, -0.036704500110160763, -0.010968393696582673, 0.006870614018463079, -0.042341107352777366, 0.02835750273858396, -0.06361921375106272, -0.016806855637885615, -0.010303953574541115], [-0.034901771130754586, -0.11139484231984, 0.022620834041486286, -0.0381711776853002, 0.06695836342223162, -0.017272713399715305, -0.02734278828857675, 0.004622556371052734, 0.053206742130574414, -0.028456384225951693, 0.051251993224267184, 0.07274631939508827, 0.05001885535561003, 0.08214719545828372, 0.06528848336655178, 0.07651311019365548, 0.08103071569248964, 0.010509098239974477, -0.021679080716773932, -0.11426055822692868, -0.06680811132242127, -0.02264170051246225, -0.019280533486045894, -0.007717285799955371, -0.05054603778560464, -0.08059894073684462, -0.00657726314830048, -0.009567050138651988, -0.04078763849675094, -0.037484344726802975, -0.04748507867787229, -0.020027473197134504, -0.04324982397982523, 0.06363331359752365, 0.012172173105207316, -0.04910947095040971, -0.014164752003168555, -0.059613425427700206, 0.05112221894429425, 0.06991198709853527, 0.06323564943311938, -0.05781570870899377, -0.004609680610504671, -0.020282381984346107, 0.02838594845054508, -0.050907132623317385, -0.03413768572684155, -0.020870611632094097, 0.00774223685723155, 0.035058794038611236, -0.01660325576413308, 0.03353530052683069, 0.04152112618174199, -0.010768995703168617, -0.06291523662781692, -0.05915404487468771, 0.02988672548147697, -0.024052966306060276, -0.08650084340912056, 0.030958769720468078, 0.006543491429400237, -0.07101206122864352, 0.05956970475537866, 0.04225649856456756], [0.007007693431765526, -0.06436284759445428, -0.07082838780486632, -0.015509300666733705, -0.08656579959507091, 0.02045964343526063, -0.07125733799623639, 0.00832935065428418, -0.014552836006871385, 0.03595058498715033, -0.04737350750050097, 0.013825424997813793, -0.07045006850178057, 0.04018132020186186, -0.005806446036571389, 0.02504424074866727, -0.06669660196220137, 0.0252075625507916, 0.015465606996336007, 0.018369517588634032, 0.015790399662600985, -0.009771401673981021, 0.06269507829764367, -0.007874037350589488, -0.03733368243147093, -0.002966120683174924, -0.04800840606166658, -0.02343535838453884, -0.008952306017849517, -0.019170378038284606, 0.010071073023536192, 0.09827579102597678, 0.028837321676611787, 0.054159361369152406, -0.02544116849362433, -0.02964879987635352, -0.01910087581813694, 0.04307740459134972, -0.1084963673392282, -0.05218270133511438, 0.0051687408039246254, -0.011318373740167273, 0.09938535727038553, 0.02261141697678803, -0.03344571858315083, -0.07968118972942878, -0.01720087929326357, -0.06582255413145714, 0.023574467859579083, 0.008137098067793995, 0.01616405352707164, 0.10501427992581427, -0.04583395351131414, -0.009717880004379375, -0.06124129323025448, -0.004070839808809084, 0.08047246986599106, 0.028724818930769128, -0.005782469021009808, 0.012709246806585917, -0.06115744518770539, -0.019886555537203695, 0.004305905256595173, 0.00502156864290348], [-0.07730779470061055, 0.01654746940791497, 0.014101552367164085, -0.019043961772146383, 0.0002108692973345415, -0.0749276383728199, -0.07474096531185474, 0.006802734038487092, -0.033725114018024235, -0.0005836419079101277, 0.042400681938473725, -0.008784788083577091, -0.1419601743738663, -0.007609157789642654, -0.024296392142945215, -0.011853854960566792, 0.04544326848655912, -0.07972781419904452, 0.012321670220050858, 0.07931232461687109, -0.03161490151651621, 0.02385616080467447, 0.048805812072143094, 0.010618291157692679, -0.03460262289734133, -0.03583622271899714, 0.03756758089825163, 0.029908045540372328, -0.039722653534707136, -0.05942086752376068, -0.06469050806885823, 0.08392609278678564, -0.003431746812618425, 0.1192095455761331, 0.02805929022782507, 0.02219922963990299, 0.015469096669390923, 0.05046468817829144, -0.048793559228524, 0.10909713688434142, -0.0050660010058130546, -0.03552706964834138, 0.01528163831719574, 0.055171444756790616, -0.050889206077407975, 0.02863122695000315, -0.03618589444077726, -0.025570674888782386, -0.02472259554094825, 0.038564667762093954, -0.0560166321057781, 0.009728582683660626, -0.017345221462385783, -0.042790575851766974, -0.061292197759830226, -0.06075503509109927, -0.08251916022556208, 0.04526327855550185, -0.012205327856550837, 0.008013132542726734, 0.05950754922477189, -0.06162522253631085, -0.04755523798661494, 0.012865077376410364], [-0.09212993004998196, -0.029229193847890658, -0.04671415456155755, 0.01664339667223075, -0.021506949045908316, 0.10142685522016613, 0.047370667800473144, -0.043095051300028844, -0.01956228271931504, -0.01755566900842383, 0.1670072246252552, -0.07627660065731809, 0.010280307314055714, -0.10527972127409234, -0.0003503936943422034, 0.09646404054643197, -0.020630114682088606, 0.05578842297231926, -0.003339323186513653, -0.021339407693562847, -0.01271056556712232, -0.029643060021650087, -0.03162071781937324, -0.06718496351793608, 0.07610492952407032, -0.019853356070707942, 0.014837843377204868, -0.044271544005648006, 0.056416542791710655, -0.013816653256527677, -0.004597844053696915, -0.092377270103537, 0.019999818863241117, 0.09149485485975087, -0.04389504674555518, -0.023144067280028442, -0.057494042145782145, 0.0065236749484406, 0.0032337103214248315, 0.03561197343951567, 0.02785362032770908, -0.04103825757719433, 0.01136159220772163, -0.01658170991675064, -0.055105486914373086, -0.006407189143228793, 0.19201283698359678, 0.116933775350683, 0.007062309676553577, 0.08782555166425093, -0.002292206038634829, -0.0026838914400045604, -0.09846824510307037, -0.04849265402386806, -0.03957268875853615, 0.005430531171231193, 0.0007063256736238459, -0.02924100447037673, -0.029739557588752033, -0.008392000635985074, -0.06977182470053887, -0.030942920032355156, -0.01925804660994152, -0.06308144713796664], [-0.016679532409437037, -0.042164129022739846, 0.06239623333916848, -0.01231395130257875, -0.009573501954911454, 0.02161868407237501, 0.028131148124576174, -0.08769345382858595, -0.019030471328090708, -0.04591306587218826, -0.007332204578252252, -0.027088883050759276, 0.007933205878863196, -0.04952067008671762, -0.028676576186750322, -0.029858072189927868, 0.0546791213795719, 0.01858699164133826, 0.018631693331211834, -0.014461256995603092, -0.01943118586134823, 0.028334924765851425, 0.039266343322151336, 0.0007650282022380207, 0.05766192885527437, 0.06435454715992275, -0.08407994801998941, 0.02173741627925703, -0.002151722323402598, 0.019611546672559016, 0.056365326472337766, -0.046494198390211815, -0.08183620037171001, 0.05587110655312206, -0.05043109023863834, -0.03465931940543576, 0.010334915807820323, -0.034653375023402475, -0.08041878088280376, 0.001726844027632168, -0.039470935838941935, 0.030196483845816288, -0.025560726043053632, -0.03477178094079792, -0.010606628946975704, 0.05314177559440192, 0.045856080913782245, -0.055216260499139254, 0.14140659028637184, -0.016454189161721665, -0.05820578404952152, 0.04486249024502237, -0.01826721765454747, 0.10877926205479785, 0.042800585328223784, -0.010036867920091317, 0.07956501254958923, 0.042886794574242916, -0.06206858050858844, 0.044870678517487946, -0.026086555185674477, -0.0042086129535005914, 0.006619249267595362, -0.04440105368482323], [-0.06734395478902427, 0.018575897723837786, -0.07011638005569899, -0.13006737430842555, -0.042229710188508185, 0.01672269260242294, -0.01363105569011672, 0.06399977719741007, 0.009280953049034181, -0.03870448224146314, -0.022202322103007793, -0.07255629547101261, 0.05484104147022123, -0.06975608831189885, -0.04648760558052773, -0.00809567667113175, 0.00011885780567041781, -0.0758953044135859, -0.04573646438620413, 0.013386571938084907, 0.057059646286544204, 0.01762734181515879, -0.0013035898172643634, -0.07891355790747552, -0.03118049711147134, 0.0263394367414843, 0.05459605145395764, 0.04492026683432318, 0.006973671148361888, 0.060841511327722385, 0.14553574357149027, -0.029994556246823588, -0.03854316812278863, 0.07669496956677355, 0.011892754473493028, 0.005672394861879178, 0.019817896275091427, -0.033056560429383534, -0.05226505449907183, -0.039251876713131975, 0.06292978908565758, -0.07256131115191547, 0.025185862957733167, -0.028167470340481386, -0.017847723089815155, 0.037524690974922885, 0.042627877420116665, 0.017322931122399656, -0.09460682965948995, 0.07934569989352865, 0.066174917285629, 0.004618257485691672, 0.0005180979951550236, 0.09098692509846079, 0.04784205039544863, -0.0014795908156172224, -0.014765332864102863, -0.009775100257653626, 0.05945919776388616, 0.052527517381742765, -0.08149016802523035, 0.023467985076069883, 0.043644718084646705, -0.07608788001902553], [-0.0001497425604693233, -0.08975425603807388, 0.006540375886373695, -0.10521923165031609, -0.03443334877553162, -0.03086348942081919, -0.03580232247612152, 0.07331323599178415, 0.027047368232827985, -0.020181275048975482, -0.04712754776222296, -0.012060025202000814, -0.051978054177961586, 0.04914796211223298, 0.10085191286694196, 0.053194627848488676, 0.01675289232779171, -0.008365516844732903, -0.020460957455679975, 0.08815018260340454, -0.02908914097180508, 0.07884738397725129, -0.05715136222936665, -0.014961957973363006, -0.0865729314321697, 0.00804254167752429, -0.06382788364295822, 0.08409769475372568, 0.020822894213337502, 0.027142634564584902, 0.014277417735693257, -0.055181644184217615, 0.006268920208989439, 0.09278658656986637, 0.0004320890136865342, -0.051367075196106435, -0.09355743240215465, -0.036028453722116334, -0.08900600024671776, 0.04194746168165935, 0.03945490508274447, -0.04422861129924841, 0.031010739052894323, -0.029115356725172854, -0.0023038691906474033, 0.018786592343684197, -0.02242336664053328, 0.02112245883911006, -0.08514212398014173, 0.005933382901864394, -0.0017653437176107845, -0.10335846168676037, -0.09140315765194464, -0.0939201250939471, 0.020925655125682476, 0.006260906625307535, 0.013836947184085771, -0.06699223046232222, 0.05752686465114278, 0.04964097795446675, -0.03873748307031507, 0.059400014040328936, -0.012673494879681415, -0.08971190123250769], [-0.08246353862522003, 0.03705863241272286, -0.005255258542745031, 0.044508581099166215, -0.00446351684092386, 0.013519421701547697, 0.10725428097986382, 0.07055153301131467, -0.021861078336919467, 0.01893878056931803, 0.02497326612255559, 0.038456061262288545, 0.003586486262315023, -0.024927122729756102, -0.00018297990249496952, -0.024258162287760378, 0.08502288712801569, 0.06266613836260974, -0.010284111471503023, 0.021632025847593623, -0.008356954839370913, 0.060267778488132986, 0.052976466129543605, 0.028719183976142693, 0.044005490946426834, 0.033363864130005534, 0.05929907845430694, 0.026826185412999966, 0.007672135300193136, -0.029154296622975348, -0.07938540034402758, -0.0014065556215256908, -0.03742895663613385, 0.0030309155841471216, 0.057603364186246515, 0.008728964282874134, -0.020960749703240317, -0.04308950256171576, -0.07223273594164943, 0.06731683504520644, -0.08973644768272206, -0.04721367262757608, -0.11683434096935932, -0.01596756085911606, -0.017287980950154238, -0.020419951887357242, -0.0031885414549244775, -0.041480150233748, -0.04614657850420872, 0.09181409884549471, -0.016872726866493642, 0.045843683478736776, -0.042263319897176126, 0.08145509468304658, 0.07647774662765079, 0.011668205484044004, -0.05553473182268346, 0.004394233558618241, 0.0023892380542622016, 0.01210283532765328, -0.04940760222937644, -0.0769231231457439, 0.008200571767634402, -0.0005197899690648691], [0.00010480443359247901, 0.05186126087369938, -0.07450685577785011, 0.05104774144840052, -0.03753865953648869, -0.019961728774080957, -0.041708156251348764, 0.00452648637193637, -0.09625833878411166, -0.028692661793594202, -0.026049639329472834, 0.06383811550267858, 0.0076114056702976645, 0.03512897960703238, 0.0002999554232074438, -0.052977468960741, 0.04582076530127303, -0.04270123614795946, -0.026579302486762886, 0.009197427746343915, 0.04775692070664055, -0.010171455441527444, 0.07629302008109759, -0.02886401875607712, 0.033617335592195645, 0.00018265078036096424, 0.07811872464787604, 0.010829138993143821, -0.09481861600399238, 0.05496922907574191, -0.004118821912769185, -0.027933844838031772, 0.061769048307601195, -0.016733613085866173, 0.030303906765151663, -0.03880921825900113, -0.04223094875960272, 0.09144818862866781, -0.03975115610958967, -0.029535392470114233, -0.08628322974082937, 0.08232653556797125, 0.02010195095020285, 0.012009685088741635, 0.04925192733682999, -0.06714163590396581, -0.027326989173897025, -0.0046183028444887215, -0.07820959860293951, 0.06623707243385983, -0.0009308075973255152, -0.016328541926915387, 0.011931188968774665, -0.03801114547538665, 0.002278550779703073, 0.17311683924026777, 0.03054105457488964, 0.08426243309971043, -0.017934405983819606, -0.03795996638936511, 0.015642393443036733, -0.06776633313190343, -0.11651896284697756, 0.03695100152617197], [0.0323924679531046, 0.04211584667159175, 0.001422793454129408, 0.09992291084280339, -0.004410739518369062, -0.027979444625090402, -0.15185111635788012, -0.0023822360612967427, 0.04201617306672456, 0.00034654285816758856, 0.05678177228461475, 0.11590900247689143, -0.008755507704544202, 0.06218769581060737, -0.08009765070513888, 0.05208948087555763, 0.0032067535158768617, -0.011181908762248437, -0.008252891741081929, -0.007894517313230789, -0.015596902232011491, 0.010034500316521467, -0.008803082136130555, -0.058376335679949334, 0.021064402359039475, -0.030701967740867656, 0.052931317279446374, -0.0017085198178786475, 0.00641567848332407, -0.10350184157708474, -0.06347193145786134, 0.04745769352497163, -0.03706334165151582, -0.026892162802660564, -0.014038088258440527, 0.06887940251293846, 0.01889682252464695, 0.06617835615721812, -0.013523305948719155, 0.010767027264087667, -0.06077297190819182, 0.05949956248710304, 0.005487562971169151, 0.002228856071892677, 0.017087515140517658, 0.07307403474542921, -0.010833638880672342, 0.08399615174327874, -0.04300838526895822, 0.021323542800537776, 0.10148086210661664, -0.024739379857001666, 0.01238729122110973, 0.04432069860408356, -0.00696498658677561, -0.07577928398223216, -0.053334001675361384, 0.029341526642200216, 0.04502832344972069, 0.039626028365318235, 0.05790356079823594, 0.0036358013917354597, 0.01051736336269491, -0.07671445204442913], [0.016027532502125318, 0.030945052718053218, -0.02945661867349791, 0.03252699774173206, -0.09171623684568267, 0.03793625849621467, 0.01516664867973459, 0.10660182903787738, 0.0713715975367188, 0.07611400218940508, 0.04128478784029455, 0.032659020387184386, -0.059681393974093465, -0.016924666485383308, 0.09226372064220206, -0.07354741115820482, -0.022742667060106074, -0.07168214590250786, 0.07328413334835997, -0.028576272434523955, 0.0780107659946915, -0.020898161793540877, -0.025462515178389957, 0.06457547567685669, 0.04741816286615089, -0.13719287330365992, 0.02278605084127722, 0.03031300496112549, 0.010596850255712253, -0.03321674530043619, 0.001434843131972583, -0.020105140894284355, 0.010673424703134687, -0.01022245398159375, -0.03141211557868705, 0.00827165665285288, 0.040529285348523396, 0.014597001879688088, -0.027963163448050023, 0.016983392714654044, 0.0540326753389465, 0.08058007902382212, 0.06099061577846262, 0.027141798485679273, -0.050968460394974595, -0.06897082809096644, -0.01022179490039429, -0.07117457964166046, -0.03963761454931554, -0.00859247395147385, -0.02445631948091261, -0.01656236294932917, -0.06707436267211478, 0.011690836819218346, 0.05033125717260003, -0.027685122892581744, 0.036656180382855987, 0.13448800826547314, -0.0046371572854138595, 0.03289107232840409, 0.009938390359675498, 0.04897339386669372, -0.08680492730270253, -0.05338437843107697], [0.007246022599638014, 0.0447983746563766, 0.006592458842633396, -0.08407364525292554, -0.04159875234707156, -0.040138720343101855, 0.019647060152757117, -0.03848877971653637, -0.034385951463186126, 0.05478802623687108, 0.06744365673950399, -0.02087352981047595, 0.021460825783062916, -0.09502928233100967, 0.010017029183067776, 0.06010296774812661, 0.026606493999463198, 0.005104343454114754, -0.019629434428786053, -0.032667930017285386, -0.009045027364552503, -0.07835961067561936, 0.08134046174124622, 0.028496940702912855, -0.00517385153834652, -0.03130486852087232, -0.003552687314259006, 0.04029472954788473, 0.051085833049839324, -0.04564328462473318, -0.049170627714208846, 0.10496646425477127, 0.05740660836706845, 0.035785661054669585, -0.00700269279418535, 0.046670074795707214, -0.06430798661870472, 0.07736598843391722, -0.0018067701921267879, 0.03994453793970236, 0.03263892648226149, -0.006645334540014486, -0.00885733849152769, 0.061699265927100844, 0.051845948260767105, -0.0895111887691419, -0.08547939808511702, -0.047791358368027254, -0.04513085788826814, -0.05649408781707366, 0.013743662934556955, -0.02342061135962794, 0.060918492786006445, 0.07338140858801927, -0.001448722267209452, 0.08502746652492839, 0.0012230073501613968, -0.021960243908095704, 0.0032721739699221788, 0.047722636762945136, -0.08154259298265193, -0.010535856806845018, 0.015021254226665897, 0.01833854492393004], [-0.018608845485657523, 0.024687408083607223, 0.014754369784588637, -0.02989587434826187, 0.11018737031070586, 0.022200637954048696, -0.016727285194571007, -0.028876171821858823, 0.05199300190678491, 0.0051547978819917305, 0.12869912627519065, -0.02201749310158715, -0.06276112803779063, -0.0013989834335469155, 0.008842241950646635, -0.10699791495450703, -0.01561536807489394, -0.018607789778500274, -0.018625371221805402, -0.03183120713056874, -0.06784146826121712, 0.038286703325554394, -0.029488415708484053, -0.05170473135022585, -0.038382476716434015, -0.0238559261240765, 0.005487508474357275, 0.03375621638477463, -0.04814283476674614, -0.02420817428684315, -0.06795840275870206, -0.17133702351200303, 0.007868781777715272, 0.07677177104658434, 0.02636918634212259, -0.025610395246918626, 0.004872932569944725, -0.05933737572056231, -0.006176696832295059, -0.02160257951523179, -0.04306857256493758, 0.020488531607022444, 0.13131312157976224, 0.08411790283741251, -0.003640237294104043, 0.044654533406856343, 0.043573305486477046, -0.03270560921704222, 0.032522066914709005, -0.07278109174928092, -0.040673710982633955, 0.01205884097799488, -0.02094994062894569, 0.08871556853542963, 0.032730984696940114, -0.019295839010587623, -0.023767864730811668, 0.00944344178215615, -0.05331238085381874, 0.030082946509310034, -0.06946323821325195, 0.031466766736585626, -0.008313289366495155, 0.020941145015281763], [-0.051143312452894954, 0.0123736215158856, 0.1218419604716893, -0.02309293329550193, 0.016031113827594014, 0.07604261426455278, 0.03847186900632152, 0.021813511038193102, -0.05119903990112804, -0.06452795725828891, 0.0026987457958510515, -0.02339694389862254, -0.0009625851569865158, 0.01038723062824798, -0.034164765130654653, 0.024955971449945394, 0.09387126315492804, -0.0509794183361598, -0.023715672442256145, -0.0025057166551255487, 0.05760191207951365, -0.05992133983997818, -0.05379810339842719, -0.10928138388224307, -0.022241650510130648, 0.03435254881066835, 0.05380197251470784, 0.018038983988307184, -0.030352911094479972, 0.035682204911767955, 0.01031964721050953, -0.09701028240473733, -0.0620281560059004, 0.07636072925321219, 0.016273814221756354, -0.0694376024894021, 0.04141388592610528, 0.05361056127404516, -0.021972536591275467, 0.03321796215857719, -0.1889036088154168, 0.04917305384881519, 0.05935431046960561, -0.05680606545916821, 0.014247464205070589, -0.017077666346237284, -0.005178520794613409, -0.021459703108878677, -0.06729108279693863, 0.09547980554494281, -0.01567306471523019, 0.005290928725808566, -0.05098242823067308, -0.052369700058619295, 0.02083936694333627, 0.0265868149598389, 0.04434186667836383, 0.055749005861478865, -0.010617084096045327, -0.02243564276951829, 0.03771979467795697, -0.032195541667129395, 0.04403045314331001, 0.018915120904666606], [0.05833764459597938, 0.03385989351681451, -0.0532575566048054, -0.04372110128490605, 0.03699609433095474, 0.09632086559107368, -0.06681208027547017, 0.0011723630586156781, 0.014226713548726806, -0.07706340180157614, 0.024148959084505716, -0.004703411267126289, -0.10589214372249803, 0.08190963219001704, -0.04359859894865131, -0.06477620436735174, 0.021220356437471805, 0.028157335271879507, 0.03719439266405271, -0.019496113927072248, -0.0005512573096302544, -0.03691131556980225, -0.06617495710749127, 0.05450432855232075, -0.005190299387787077, -0.009208260451182056, -0.10097826226474278, -0.009009101243168463, -0.04255239800040812, -0.008819321302142203, -0.011073501893820576, -0.02254987725089821, 0.047418512203031574, 0.02257964447614392, 0.05692990004484719, -0.06691388694286143, -0.032777224070682516, -0.002034488556245165, -0.02053836950810219, -0.004003119654297518, -0.05970523783675602, -0.036172454344795574, -0.08291099522567527, -0.04495307879201113, 0.035061219023645056, -0.01081908148534634, 0.07605202327993146, -0.030079002924845905, 0.006013997766288281, -0.06127849642436821, 0.1313537653723749, -0.009021702614335292, 0.041902634710744915, 0.02087909653543617, -0.0294903335260012, -0.06722066580455378, 0.00788641872836045, -0.0281221288524598, -0.007854153292034356, 0.03289572159831346, 0.003951775133043267, 0.019047249368949748, 0.0075784965302042396, -0.07410728234347218], [0.07051178896704269, 0.059389509463056295, -0.05738499092791073, 0.02552153491984724, -0.03343727505296602, -0.037724971922603975, -0.0002445408258729173, 0.08827057550351548, 0.0534349261379589, 0.030568294756813576, -0.05811436053665343, 0.12901917901408097, 0.0441300819514198, -0.11863420482333496, 0.020176500809708037, -0.024682810539693588, 0.02070723600416797, 0.020235394299148717, -0.046392219115801145, 0.09222115693776224, 0.010090647184461567, 0.04754524915351931, 0.06825719763491084, -0.037282588792587334, -0.04605126274849117, 0.05666487815951979, 0.07034891384234539, -0.06954994065901578, 0.1015831211105229, -0.011894713611241033, 0.03494039508793182, 0.028505909277120232, -0.04906019580054413, -0.043641021308657144, -0.10523730516741307, -0.05814186193323965, -0.07487634319908223, 0.0020299275886113996, 0.0691652534543743, -0.0013710260392216336, 0.017114719708049942, 0.039295112950187464, 0.034330511070140825, -0.01948743358030149, -0.07391008683794349, -0.02170845648150621, 0.0031799276461600043, -0.044024731481359325, 0.018281776647129537, -0.014784193426858303, 0.031406729913623525, -0.040569720037644294, -0.04656639885231098, 0.08960337618553041, 0.001452409334911421, 0.027928891975614316, -0.055478701687589, -0.019054732483718688, 0.03445476194369889, 0.07907554222063946, -0.03659202208994294, -0.04055345331151733, -0.0011449543885572503, -0.07699358197109306], [-0.0015219618107073, -0.0032692771211996745, 0.03660535991835775, 0.07144858155628059, 0.02878148438121902, 0.03745398405211481, 0.002640485775741755, -0.018169844965812497, -0.10081205566230302, -0.04476091077621917, 0.010973624719469516, -0.08311503436928042, 0.012267788626517796, -0.020245210126100945, -0.05159656422488878, -0.023739812973523264, 0.03680902540625179, 0.04472455995429606, -0.09783435517934767, -0.007550082762092651, 0.04615814564961561, -0.013025657433066372, 0.005496001140006541, -0.07552965503976049, -0.024245360995285188, 0.09236710767055388, -0.03980344651729697, -0.07276292136218353, 0.007549463862323372, 0.03983179637524345, 0.06029653524091127, -0.026148942215756785, 0.011236713491611065, 0.027494073271969937, 0.03279008333209063, -0.027637912212359655, 0.08650567235311472, -0.03471374180963896, 0.03575294311607683, -0.0011066845473343512, -0.029659016332883256, -0.032468893770786586, -0.029614991202820143, -0.022570397172517215, -0.051461494039848794, 0.035224509314738583, -0.03553288931026095, -0.031063243763373227, 0.024682602210386054, -0.005452901578562798, -0.07181697876425158, -0.04727561883397648, -0.009927640030101867, -0.029041271350166015, 0.03790509223240787, -0.0386081327322971, -0.04884729358598133, -0.05104029120926588, 0.020539292638742795, 0.024419009716227638, -0.08447120778786488, 0.03141954213327889, 0.04348571699914596, -0.0854082845961752], [-0.0348720532603897, 0.07216996591782933, 0.05081580992098629, 0.0012522183914328011, 0.025316917655851447, 0.10667309984720103, 0.025395082106315817, -0.06166015888870905, 0.06893983018026618, -0.04398905682569689, 0.05019964362889108, 0.03314667390402812, 0.04492721894912238, 0.07782886830469847, -0.07403985445189265, -0.0035147527921568678, 0.09829034284106415, 0.049314725184057565, 0.00894784726269831, -0.051678047040809694, 0.0053901988755643135, -0.046056960702690365, -0.07416373087044625, 0.029116571438737755, 0.003298431170302737, -0.03906829629762225, 0.019947895902325097, -0.02545028261616632, 0.08988130685465438, -0.0015441416236747036, 0.07965498354049824, -0.041052705518989374, 0.03097881100657287, 0.09312091113148332, 0.013692162274525486, 0.057399273110820485, -0.08779901799564109, 0.03571569806585308, 0.0015347314009174508, 0.03863843470212166, 0.04382371138976969, -0.11395783988262098, -0.022405321809171663, -0.03384128609033832, 0.007685452186199109, -0.09801173744697675, -0.055079005265643965, 0.05060463740540073, 0.008934417724593241, -0.054953032876091636, -0.01278940838279461, 0.05547116619374499, -0.09291215348596439, -0.010678757598042989, -0.011599745480016299, 0.009443886565239517, 0.025444705482132148, 0.09648686694726985, 0.02797017413376019, -0.02967229495490998, 0.06353606678930701, -0.04336930336325964, 0.02203077521301251, 0.07937086999751489], [0.05441261843487569, 0.0409662150366298, -0.11270967120094105, -0.005101397493110235, -0.029666920904061134, 0.06691595278153592, 0.04245915996325692, 0.01318785368520665, 0.040125362626486354, -0.032810587341659876, 0.03203620560669899, 0.004798359061909372, -0.08501478195568099, 0.017376954086946672, 0.035716874202236314, 0.060276538994276624, 0.02663714315437178, 0.05084622651804216, -0.08749574312506311, -0.018860162323499848, -0.00719786201178394, -0.016654504440576028, -0.004497306179085558, -0.02916291449391838, 0.03718197160354267, -0.050063440348187424, 0.006322272625916836, 0.0036947699676553713, 0.007269928178214839, -0.04786730655419916, 0.07067178344172526, -0.01142097287803306, -0.07267310979297625, 0.04047181312925098, -0.00016826342934850538, -0.004896288057025182, -0.0048422394609464355, 0.019972582766209127, -0.0026891797242606045, -0.03906762857334248, -0.07167969259951931, 0.015326637092987547, -0.07668101832016677, 0.05655378039074565, -0.048177253883249525, -0.04291198830880186, -0.04959342367134223, -0.06884581874548897, -0.03902212004802205, -0.014325248614834309, -0.11756175732222894, -0.12350263859095612, -0.03615663889457627, 0.04461827841281919, -0.06568213150908428, -0.003855706001541216, 0.07225403036923038, -0.06684222739129196, -0.02214032983367517, -0.03753486849315602, 0.04505116613066289, 0.023429112707202965, 0.031196583799970912, 0.1260881024105211], [0.08230092713026797, -0.005002512871848617, -0.010202134379155377, -0.07317675790264423, -0.08657839103957651, -0.0025072779518418823, -0.06562938168577283, 0.03158521891202294, -0.039987862653214044, -0.029443087664455303, -0.07842220997138089, 0.10657884759427697, 0.03832667999135463, -0.03585689197355021, 0.007634077956197728, 0.06682620257160539, -0.04686224298148273, 0.09629777553877392, -0.05213270480069965, -0.008958107681612848, -0.08335669679184896, -0.12821417366790894, 0.05101728860934949, 0.0043286093160388546, -0.08757320405822566, -0.08286287409787167, 0.05784948661476572, -0.007606201603567147, 0.07229880192183437, 0.032152487188108474, -0.0033619314914574935, 0.001632910616918905, -0.02803545285900385, 0.0049389443529771525, -0.0030802067378377777, 0.04230097989956456, -0.008253877703987889, 0.04159583378455766, 0.04649895255615952, 0.009129890370157136, -0.0663149151752876, -0.00810529764800356, -0.09627130768746911, -0.06094359505604555, 0.03689169689147316, 0.02499586052603827, -0.0001620728358131296, -0.015275181154895448, -0.0373453873634365, -0.025900921523041184, 0.0487525638153609, 0.024075938237864702, -0.06925689150410354, 0.010043585245401252, 0.007069190427613706, 0.08327058521343013, -0.08876976859617743, -0.03955401483162052, 0.049175530794790666, -0.05611055066575368, 0.12049208811247568, -0.05954567529306388, 0.001470890454795801, 0.028261419473310886], [0.0444990955684958, 0.03612348353803201, -0.023338439952964484, 0.046123919022650395, -0.03811570654007485, -0.027020426096906563, 0.02306392720531298, 0.0762451502621482, -0.011524387803181449, -0.044969038221454635, 0.06110270852501197, -0.06388204855894332, 0.09284218542495881, -0.049703681589792735, 0.032372785224166055, 0.04680497497389104, 0.039650207383788015, 0.011465364601603984, 0.0025016201424989106, -0.08349822450437874, -0.039437347193572246, 0.03660008374142392, 0.033505202581802555, -0.05242092209030475, 0.017525086992662423, 0.0127294872215163, 0.08843475620042887, -0.021132449807560374, -0.02625675711059291, -0.04664091321017536, -0.05047118450072319, 0.018937752075330855, -0.035574599693671625, 0.05428074183843242, -0.031683387149105825, 0.07747848173194091, 0.0210983217122633, 0.013050343883921844, -0.0581054170035883, 0.0166227766318576, 0.0022992070209092606, 0.03192499250838585, -0.025801684910667047, -0.07341939591939695, 0.01390078992146578, 0.007060322147458411, 0.012318424429449889, 0.05079300352775824, -0.047459018809157795, -0.12029654810401229, 0.02399248675758834, 0.020501678257438292, -0.02409498206091234, 0.008616510370289534, -0.05292092255384599, -0.10637902365135322, -0.08550494036441471, 0.0021395606618453944, 0.06983742219413576, -0.019673649554813256, 0.041110072553151564, -0.030018297664688463, -0.0028000935014371505, 0.040232392104804095], [0.006726599991315774, -0.02735888811342069, -0.04370436921604923, -0.004673376041717687, 0.05970517184642082, -0.07933003672104837, 0.043402757768407206, 0.014326336576463346, -0.048947561118326696, -0.0009280134612258127, -0.01030534628473528, -0.047868117058194125, -0.027245587441975028, -0.06345209067892514, -0.10462774114613826, 0.007638593616559639, 0.052754683786337894, 0.08249658552111046, -0.05613309340386846, 0.10845831928195906, 0.07709013151421401, 0.07189634638780706, -0.03968214528103314, -0.028397995487732287, -0.09790183389713883, 0.009654999469700576, -0.01987994975716155, 0.008171663761010726, -0.042149525842055606, 0.033985090777397045, 0.017333617109421613, -0.05778694201137314, -0.0023176912461250814, 0.014378738653272015, 0.10144161742957604, 0.004837663320821313, -0.04749782706976397, -0.015973696324778373, -0.001577023175038162, -0.006747581037837302, -0.09300837592273858, -0.016747162220783457, -0.03501738720329667, -0.013157891533849969, 0.10712477853314041, -0.042037023742651836, 0.07262698821038577, 0.05862006858810215, 0.03452185305170299, 0.00015709985161897278, 0.033051858962557704, -0.02272438044024815, -0.027600354104498164, -0.03777271855435862, 0.013834119452608453, -0.010595014357757091, -0.012100873202760593, 0.07173238745050882, -0.03559517512232174, 0.03714153600925046, -0.026361325526410226, -0.08041799283491827, -0.07202137366456642, -0.024827144000646912], [0.03180018242026285, 0.03241510796455474, -0.012156536985738603, 0.03123501314031637, 0.003851868734924526, -0.01320725556770436, 0.043170448186770245, 0.05999770230532579, 0.05131713279841649, -0.015499425119847489, 0.028673565242130175, -0.10754314665371331, 0.009852367417847159, 0.018233372916841805, 0.007675906696701065, -0.011226468187433612, 0.06590099770781077, -0.0047092150325867095, -0.007047730029644288, -0.012169143378453835, 0.052230209012613396, -0.014771441657496122, -0.04214100685585806, -0.005493135877300842, 0.08625256989423341, -0.0151869422023482, 0.031101164159295792, -0.01404671352411243, -0.013977824953628159, -0.028326767545236886, -0.061432632024847965, -0.0055448095641781586, 0.036287495330361914, 0.07960976664270872, 0.022317779800026628, -0.04125771484013161, 0.03765366842874167, 0.022931936263699163, 0.07062800677679977, 0.10554126596240966, 0.061346955728114924, -0.01983728469361885, -0.008042306436847542, 0.05848482861101226, -0.02564237565590118, -0.007095486453293025, 0.032039020414024885, 0.0540737715127423, 0.011258694036879156, -0.14609431291800679, 0.017140569637856023, -0.015760864434510025, -0.04929145392654936, 0.001218757435372332, 0.05659198560298236, -0.05706741791518878, 0.08030323777010115, 0.049433335083733924, 0.0471823881469704, -0.04114899797550494, -0.012689659865845295, -0.01933608098909296, 1.722097621470752e-05, -0.0031418168834982346], [-0.016028538973506846, -0.00898668807149228, -0.010688440082863942, 0.013509975244763325, -0.08342935907195242, 0.024575917859605168, 0.08572516624589921, 0.05416947299590426, -0.0477750245095372, 0.05276067266053371, 0.11564367006902683, -0.012250941136663843, 0.03641761149986943, 0.11613624809664327, 0.05203778749273925, 0.07832321805971175, -0.055317244087787765, 0.011900650461275579, 0.01979742932080391, 0.02850080397566438, 0.03987615284724756, 0.007888031574338669, -0.06628591379733646, 0.053854889641077534, 0.019135336250857147, -0.059529129372092454, 0.03833507798566943, 0.02792970833393237, 0.027124340742299906, -0.014487365771244914, 0.0825499510523168, 0.028851301741463966, -0.039898705196599174, -0.07792104295806247, -0.03875612784816244, -0.11968404996797107, -0.013160259473616483, 0.006513314639672583, -0.060996366100252664, -0.027549061559607256, 0.07845262107262668, 0.005419030786250649, 0.077546559388428, -0.009341457228137126, -0.008928875384980146, -0.11107910350022694, 0.036834644185013345, 0.05558658533065442, -0.017292197533585133, -0.01567273014012382, 0.0410645383022056, -0.0371886189452101, -0.03951334507555413, 0.016015875971132007, -0.030620317090253483, 0.030863083823587323, -0.04648264993024163, 0.07624171378422481, 0.033156423052824804, 0.0033259868064888522, -0.04412501032325246, -0.05342463967331081, -0.04531731348052389, -0.07233719034696436], [0.06770195482500155, 0.01727738845603441, 0.054074896612837375, 0.08783604853186064, 0.06599356996610821, 0.022709077300110438, -0.02076118268984558, 0.03784534260606758, 0.010664067736341709, -0.013164870650757905, -0.026021447268407494, 0.05450867863980246, 0.07462313967093985, -0.01389508886826032, -0.022072222655554814, 0.035262896905870894, -0.03208125276104276, 0.030490277070827247, 0.08772819305427323, -0.021103825941122478, 0.0012381051943236461, 0.10049467625649154, -0.01884784604528348, 0.007123430662454787, -0.04756886489869577, -0.03549850778921787, -0.06964178378339633, 0.14774741553996323, 0.02887783643870724, -0.002317065138025694, -0.05338980918936154, -0.09216091704182829, 0.012209627351720147, -0.00733127397127386, 0.02535445833710818, 0.03496788702429181, 0.051127610511387825, -0.0021302658866247178, 0.03141627268590682, -0.020583682845005735, -0.04300453730552397, -0.017080834472650422, 0.0388387359853424, 0.030632758156499497, -0.0006370598911832625, 0.01628505923462035, 0.08119143212877278, -0.09103545787120924, -0.06339050145960164, -0.000658304261703957, 0.03537338731226705, -0.010872940282254377, 0.04561285503208342, -0.1518985172324824, -0.11770637151569685, -0.02867839679272907, 0.13472010976133345, -3.452326212318687e-06, -0.11321026891561206, -0.018184247536324298, 0.0311881507855588, 0.04859956934030555, 0.023766308998983323, -0.011909910904224084], [0.03428403663814191, 0.05826650950221832, -0.02801823776785678, -0.006242781183201336, -0.006873972201694967, -0.08614290008235333, -0.06349295758467852, -0.11710824656649836, 0.004259708486046883, -0.015034769662343276, -0.01712374610328176, -0.0017376517396350613, 0.026227054608564913, -0.03397057637668472, 0.059276318300406305, -0.08041973342316897, -0.0006893887459162726, -0.004967197358658265, 0.042925274488925295, -0.025000553718902904, 0.05397905979946626, -0.011812037488377993, -0.005141934380093146, -0.007529533763510463, 0.03525918478367876, 0.0430904894600317, -0.03054402270095025, -0.07115973951145134, -0.049553114703349534, 0.00834300482295653, -0.0008407426651116829, 0.007118174796613565, -0.036626723620812145, 0.040190980458456683, -0.008911492070592442, -0.08250090233197632, 0.007846348768794616, 0.027649188258278, 0.007260992209067781, 0.006577152675442451, 0.011473916241923772, -0.05322135800178507, 0.07736521076246985, -0.01649041621996659, 0.07408686907101862, -0.027987734276504153, 0.04882447938152422, 0.012130904165585188, 0.005066644019562965, -0.04741612894878197, 0.06090303415165335, 0.02116128213819157, -0.004558316891592179, 0.06098164575561937, 0.004473975589699901, 0.11161203694938102, 0.05134994898534523, -0.016703330721651047, 0.0686086460253266, 0.0030737115841531666, 0.1013128171295241, 0.004124370167367318, 